/*!
 * The following copyright notice may not be removed under any circumstances.
 * 
 * Copyright:
 * Typeface © The Monotype Corporation plc. Data © The Monotype Corporation plc /
 * Type Solutions Inc. 1990-91 All Rights Reserved
 * 
 * Trademark:
 * Century Gothic is a trademark of The Monotype Corporation plc.
 * 
 * Description:
 * A design based on Monotype 20th Century, which was drawn by Sol Hess between
 * 1936 and 1947. Century Gothic maintains the basic design of 20th Century but has
 * an enlarged 'x' height and has been modified to ensure satisfactory output from
 * modern digital systems. The design is influenced by the geometric style sans
 * serif faces which were popular during the 1920's and 30's. Useful for headlines
 * and general display work and for small quantities of text, particularly in
 * advertising.
 * 
 * Manufacturer:
 * Monotype Typography, Inc.
 * 
 * Designer:
 * Monotype Type Drawing Office
 * 
 * Vendor URL:
 * http://www.monotype.com/html/mtname/ms_welcome.html
 * 
 * License information:
 * http://www.monotype.com/html/type/license.html
 */
Cufon.registerFont({"w":1460,"face":{"font-family":"Century Gothic","font-weight":400,"font-stretch":"normal","units-per-em":"2048","panose-1":"2 11 5 2 2 2 2 2 2 4","ascent":"1638","descent":"-410","x-height":"28","bbox":"-347 -2170 2360 628","underline-thickness":"119","underline-position":"-138","unicode-range":"U+0020-U+F108"},"glyphs":{" ":{"w":567},"!":{"d":"373,-1508r0,1140r-145,0r0,-1140r145,0xm179,-96v0,-67,56,-124,123,-124v67,0,123,57,123,124v0,66,-57,124,-123,124v-66,0,-123,-58,-123,-124","w":604},"\"":{"d":"562,-1045r-103,0r-22,-463r148,0xm174,-1045r-104,0r-22,-463r148,0","w":633},"#":{"d":"1233,-602r0,108r-248,0r-72,494r-112,0r72,-494r-333,0r-76,494r-110,0r76,-494r-246,0r0,-108r263,0r51,-334r-253,0r0,-109r269,0r70,-468r107,0r-68,468r332,0r68,-468r112,0r-69,468r224,0r0,109r-240,0r-48,334r231,0xm940,-936r-334,0r-49,334r332,0","w":1475},"$":{"d":"531,-1574r131,0r0,109v147,29,221,90,301,200r-108,87v-51,-79,-116,-127,-193,-144r0,499v175,92,283,167,326,224v97,127,114,310,22,445v-76,110,-172,170,-348,190r0,313r-131,0r0,-313v-166,-14,-242,-46,-341,-126v-47,-39,-87,-85,-118,-136r107,-81v93,123,210,191,352,205r0,-619v-105,-51,-171,-86,-199,-105v-99,-69,-167,-146,-167,-293v0,-214,152,-332,366,-352r0,-103xm531,-1332v-134,10,-220,79,-220,210v0,48,14,89,42,122v37,45,97,86,178,123r0,-455xm662,-106v139,-15,266,-112,266,-247v0,-57,-19,-110,-56,-159v-37,-49,-107,-101,-210,-156r0,562","w":1135},"%":{"d":"793,-1462v197,-6,286,-23,470,-74r118,0r-1072,1638r-132,0r975,-1492v-126,31,-298,46,-476,41v164,221,-21,535,-287,535v-188,0,-346,-158,-343,-345v4,-204,148,-349,343,-349v110,0,267,50,404,46xm612,-1161v0,-118,-102,-220,-220,-220v-118,0,-219,102,-219,220v0,118,101,219,219,219v118,0,220,-101,220,-219xm849,-303v0,-185,161,-346,346,-346v185,0,346,161,346,346v0,185,-161,346,-346,346v-185,0,-346,-161,-346,-346xm1415,-303v0,-118,-102,-219,-220,-219v-118,0,-219,101,-219,219v0,118,101,219,219,219v118,0,220,-101,220,-219","w":1587},"&":{"d":"671,-1418v178,3,324,99,324,269v0,49,-17,101,-52,157v-35,56,-103,127,-205,214r223,234r153,153r178,-153r100,106v-64,57,-122,106,-173,147r147,151v51,51,94,97,131,140r-205,0r-189,-197v-127,96,-228,159,-305,189v-77,30,-158,45,-243,45v-213,0,-377,-140,-376,-341v0,-73,23,-146,69,-220v46,-74,141,-167,284,-280v-81,-97,-133,-170,-156,-216v-23,-46,-34,-90,-34,-132v-1,-164,162,-270,329,-266xm665,-1277v-121,0,-220,95,-156,203v33,57,79,119,138,186v71,-55,125,-110,161,-163v25,-38,38,-72,38,-101v-2,-78,-88,-125,-181,-125xm326,-314v-1,116,120,213,245,213v52,0,103,-11,153,-32v79,-34,172,-89,279,-166r-240,-246r-134,-148v-125,94,-206,169,-245,225v-39,56,-58,107,-58,154","w":1550},"'":{"d":"254,-1045r-103,0r-22,-463r148,0","w":405},"(":{"d":"267,-495v1,-394,78,-757,203,-1041r162,0v-127,259,-216,640,-216,1022v0,348,64,696,167,940r-154,0v-99,-237,-163,-581,-162,-921","w":756},")":{"d":"489,-614v0,393,-78,757,-203,1040r-162,0v128,-258,216,-639,216,-1022v0,-348,-64,-696,-167,-940r154,0v100,236,163,582,162,922","w":756},"*":{"d":"369,-1508r130,0r-29,297r246,-176r66,112r-277,125r277,123r-66,113r-246,-174r29,297r-130,0r31,-297r-246,174r-66,-113r281,-123r-281,-125r66,-112r246,176","w":870},"+":{"d":"552,-804r0,-434r137,0r0,434r438,0r0,137r-438,0r0,434r-137,0r0,-434r-437,0r0,-137r437,0","w":1241},",":{"d":"295,-270r135,64r-203,378r-99,-42","w":567},"-":{"d":"65,-614r550,0r0,122r-550,0r0,-122","w":680},"\u00ad":{"d":"65,-614r550,0r0,122r-550,0r0,-122","w":680},".":{"d":"187,-96v0,-67,56,-124,123,-124v67,0,123,57,123,124v0,66,-57,124,-123,124v-66,0,-123,-58,-123,-124","w":567},"\/":{"d":"836,-1508r-611,1708r-153,0r610,-1708r154,0","w":895},"0":{"d":"128,-286v-79,-192,-78,-707,0,-899v74,-181,209,-323,431,-323v227,0,364,144,443,330v85,201,84,683,0,884v-78,186,-216,331,-443,331v-222,0,-356,-141,-431,-323xm249,-1110v-57,149,-55,604,-1,754v51,141,157,260,316,260v291,0,365,-311,367,-636v1,-262,-52,-465,-185,-570v-112,-89,-253,-87,-366,0v-57,44,-99,108,-131,192","w":1135},"1":{"d":"379,-1471r289,0r0,1471r-146,0r0,-1327r-231,0","w":1135},"2":{"d":"578,-1368v-203,4,-330,152,-341,358r-141,0v1,-277,214,-498,490,-498v256,0,456,199,454,440v0,83,-18,162,-60,234v-120,206,-422,492,-599,692r679,0r0,142r-999,0r562,-607v114,-122,189,-212,223,-271v34,-59,51,-122,51,-187v0,-165,-149,-307,-319,-303","w":1135},"3":{"d":"552,-1365v-161,7,-227,93,-281,235r-150,0v45,-216,194,-378,431,-378v235,0,423,152,423,380v0,127,-63,227,-189,301v147,55,275,209,270,388v-8,280,-208,476,-501,476v-278,0,-440,-174,-483,-431r144,0v45,184,143,279,341,288v257,12,450,-262,305,-482v-78,-118,-176,-148,-382,-160r0,-135v178,-4,338,-76,342,-246v3,-133,-127,-242,-270,-236","w":1135},"4":{"d":"872,-1508r30,0r0,1025r178,0r0,141r-178,0r0,342r-147,0r0,-342r-703,0xm755,-483r0,-613r-433,613r433,0","w":1135},"5":{"d":"894,-485v0,-199,-142,-335,-345,-335v-87,0,-192,26,-315,79r136,-730r637,0r0,140r-524,0r-73,401v345,-113,644,120,635,451v-8,306,-199,513,-513,516v-243,3,-423,-173,-449,-393r151,0v28,157,137,250,307,256v196,7,353,-179,353,-385","w":1135},"6":{"d":"584,37v-325,6,-531,-313,-410,-639v24,-66,68,-147,131,-240r446,-666r121,79r-397,602v302,-110,574,125,569,411v-5,272,-193,448,-460,453xm899,-415v0,-167,-143,-310,-309,-310v-167,0,-309,143,-309,310v0,166,143,309,309,309v166,0,309,-143,309,-309","w":1135},"7":{"d":"147,-1471r933,0r-787,1508r-121,-62r680,-1307r-705,0r0,-139","w":1135},"8":{"d":"997,-1120v0,160,-91,248,-210,313v166,84,278,178,278,385v0,268,-215,459,-500,459v-163,0,-286,-46,-370,-139v-84,-93,-126,-196,-126,-308v0,-210,116,-311,286,-397v-122,-62,-216,-161,-216,-317v0,-228,196,-384,436,-384v237,0,422,158,422,388xm849,-1126v0,-134,-121,-239,-281,-239v-148,0,-280,104,-280,242v0,132,145,262,285,257v154,-5,276,-111,276,-260xm918,-419v2,-166,-167,-314,-343,-314v-189,0,-364,150,-358,328v6,189,148,303,350,303v197,0,349,-138,351,-317","w":1135},"9":{"d":"559,-1508v326,0,532,314,411,640v-24,66,-68,147,-131,240r-446,665r-121,-78r397,-602v-386,141,-707,-282,-510,-641v68,-123,220,-223,400,-224xm244,-1055v0,166,143,309,309,309v167,0,310,-143,310,-309v0,-167,-143,-309,-310,-309v-166,0,-309,143,-309,309","w":1135},":":{"d":"187,-992v0,-66,57,-124,123,-124v67,0,123,57,123,124v0,67,-56,124,-123,124v-67,0,-123,-57,-123,-124xm187,-96v0,-67,56,-124,123,-124v67,0,123,57,123,124v0,66,-57,124,-123,124v-66,0,-123,-58,-123,-124","w":567},";":{"d":"187,-992v0,-66,57,-124,123,-124v67,0,123,57,123,124v0,67,-56,124,-123,124v-67,0,-123,-57,-123,-124xm295,-270r135,64r-203,378r-99,-42","w":567},"\u037e":{"d":"187,-992v0,-66,57,-124,123,-124v67,0,123,57,123,124v0,67,-56,124,-123,124v-67,0,-123,-57,-123,-124xm295,-270r135,64r-203,378r-99,-42","w":567},"<":{"d":"1137,-347r0,146r-1033,-469r0,-130r1033,-471r0,147r-839,390","w":1241},"=":{"d":"1127,-1024r0,137r-1012,0r0,-137r1012,0xm1127,-584r0,137r-1012,0r0,-137r1012,0","w":1241},">":{"d":"104,-347r839,-387r-839,-390r0,-147r1033,471r0,130r-1033,469r0,-146","w":1241},"?":{"d":"610,-1368v-178,4,-293,106,-295,297r-145,0v-1,-264,174,-437,438,-437v237,0,420,132,420,345v0,111,-55,178,-123,237v-62,54,-412,181,-453,224v-104,108,17,252,161,244v143,-8,202,-74,217,-212r146,0v-7,216,-143,352,-363,352v-235,0,-431,-186,-327,-404v52,-108,112,-119,257,-181v143,-61,236,-103,277,-132v40,-29,60,-71,60,-126v-2,-128,-125,-210,-270,-207xm484,-96v0,-67,56,-124,123,-124v67,0,123,57,123,124v0,66,-57,124,-123,124v-66,0,-123,-58,-123,-124","w":1210},"@":{"d":"928,-61v252,0,361,-89,516,-240r106,0v-165,209,-309,328,-617,328v-317,0,-570,-171,-693,-386v-137,-238,-133,-552,2,-791v124,-220,361,-382,678,-390v373,-10,718,293,718,644v0,264,-138,441,-321,533v-75,39,-140,58,-193,58v-72,0,-120,-30,-119,-111v-40,53,-128,101,-217,101v-197,0,-332,-157,-332,-363v0,-236,174,-479,428,-469v140,6,196,52,260,148r26,-138r108,0r-116,654v-13,54,-2,90,45,90v113,0,255,-139,301,-245v32,-73,52,-151,52,-238v0,-330,-301,-582,-645,-576v-285,5,-496,147,-607,342v-121,213,-122,492,0,704v112,195,333,345,620,345xm600,-696v0,154,93,270,238,268v183,-2,256,-205,260,-385v3,-127,-80,-227,-203,-227v-166,0,-295,165,-295,344","w":1776},"A":{"d":"780,-1471r686,1471r-158,0r-231,-484r-634,0r-230,484r-164,0r695,-1471r36,0xm762,-1159r-253,533r503,0","w":1515},"B":{"d":"1030,-584v133,305,-119,584,-443,584r-404,0r0,-1471v188,3,438,-14,559,41v113,51,203,167,203,319v0,149,-80,252,-189,309v139,47,223,101,274,218xm792,-1111v0,-156,-115,-218,-295,-216r-170,0r0,471v111,2,252,-4,309,-28v85,-35,156,-117,156,-227xm327,-708r0,564v138,0,338,3,418,-32v88,-38,166,-128,166,-243v0,-146,-109,-239,-240,-271v-53,-13,-226,-19,-344,-18","w":1176},"C":{"d":"111,-744v0,-428,358,-772,794,-764v294,5,516,129,644,310r-116,89v-114,-150,-284,-254,-526,-254v-253,0,-462,139,-559,311v-54,96,-82,202,-82,321v0,356,289,629,650,629v206,0,378,-81,517,-242r116,88v-135,173,-350,287,-642,293v-457,9,-796,-329,-796,-781","w":1665},"D":{"d":"179,0r0,-1471v257,-1,640,0,784,53v269,99,455,348,455,701v0,297,-150,531,-344,637v-193,105,-586,74,-895,80xm320,-139v199,2,504,-7,593,-38v211,-73,356,-262,356,-538v0,-293,-158,-499,-390,-571v-97,-30,-349,-45,-559,-42r0,1189","w":1524},"E":{"d":"180,-1471r843,0r0,145r-696,0r0,460r690,0r0,144r-690,0r0,577r690,0r0,145r-837,0r0,-1471","w":1098},"F":{"d":"179,-1471r737,0r0,145r-591,0r0,460r591,0r0,145r-591,0r0,721r-146,0r0,-1471","w":993},"G":{"d":"1685,-705v3,446,-293,742,-739,742v-272,0,-485,-95,-646,-278v-207,-237,-243,-598,-78,-884v128,-221,372,-383,702,-383v304,0,494,114,674,284r-114,108v-135,-135,-324,-246,-555,-246v-368,0,-658,256,-658,623v0,376,291,629,679,636v300,5,537,-195,570,-460r-469,0r0,-142r634,0","w":1786},"H":{"d":"177,-1471r148,0r0,617r748,0r0,-617r148,0r0,1471r-148,0r0,-710r-748,0r0,710r-148,0r0,-1471","w":1399},"I":{"d":"158,-1471r147,0r0,1471r-147,0r0,-1471","w":463},"J":{"d":"164,-236v115,73,160,136,289,136v91,0,164,-64,187,-139v13,-42,20,-123,20,-244r0,-988r148,0r0,993v-3,269,-16,365,-154,462v-97,68,-254,69,-376,18v-58,-23,-122,-63,-192,-121","w":987},"K":{"d":"179,-1471r150,0r0,552r587,-552r199,0r-707,660r762,811r-195,0r-646,-686r0,686r-150,0r0,-1471","w":1210},"L":{"d":"179,-1471r148,0r0,1329r565,0r0,142r-713,0r0,-1471","w":946},"M":{"d":"112,0r209,-1471r24,0r598,1207r592,-1207r24,0r211,1471r-145,0r-144,-1052r-520,1052r-37,0r-527,-1060r-143,1060r-142,0","w":1882},"N":{"d":"180,0r0,-1471r32,0r978,1126r0,-1126r145,0r0,1471r-33,0r-970,-1112r0,1112r-152,0","w":1515},"O":{"d":"892,37v-421,0,-784,-350,-777,-766v5,-309,170,-557,382,-677v119,-67,246,-102,383,-102v432,0,784,344,784,772v0,420,-352,773,-772,773xm268,-729v0,338,285,629,619,623v249,-4,446,-139,543,-310v105,-187,106,-450,0,-636v-96,-167,-300,-312,-543,-312v-241,0,-444,145,-537,314v-53,97,-82,203,-82,321","w":1780},"P":{"d":"178,-1471r293,0v168,0,281,7,340,22v161,39,286,172,286,370v0,205,-122,327,-293,371v-67,17,-311,26,-479,24r0,684r-147,0r0,-1471xm325,-1328r0,500v149,0,371,11,470,-24v125,-44,200,-233,110,-362v-67,-96,-140,-114,-320,-114r-260,0","w":1212},"Q":{"d":"1666,-735v-6,265,-101,430,-253,575r218,276r-181,0r-150,-190v-120,74,-255,111,-406,111v-421,0,-784,-350,-777,-766v5,-309,171,-558,383,-677v119,-67,249,-102,390,-102v425,0,785,349,776,773xm270,-729v0,338,283,623,618,623v117,0,223,-28,320,-85r-328,-416r179,0r263,332v204,-185,253,-520,110,-777v-93,-168,-299,-312,-541,-312v-243,0,-445,143,-539,314v-53,97,-82,203,-82,321","w":1784},"R":{"d":"187,-1471r293,0v163,0,274,7,332,20v165,36,301,174,295,371v-9,283,-194,400,-508,396r529,684r-182,0r-528,-684r-84,0r0,684r-147,0r0,-1471xm334,-1327r0,500v150,-1,369,9,470,-26v125,-44,200,-233,110,-361v-67,-96,-140,-113,-321,-113r-259,0","w":1243},"S":{"d":"888,-359v0,213,-198,405,-417,396v-233,-10,-341,-127,-444,-311r125,-75v88,162,190,243,305,243v152,0,272,-99,272,-250v0,-49,-17,-98,-50,-145v-46,-65,-130,-144,-252,-236v-123,-93,-199,-160,-229,-201v-52,-70,-78,-144,-78,-225v0,-208,150,-345,357,-345v197,0,275,95,386,241r-120,91v-92,-113,-124,-171,-269,-180v-146,-9,-254,143,-182,280v62,119,97,120,263,245v126,96,215,178,262,251v47,73,71,147,71,221","w":1020},"T":{"d":"33,-1328r0,-143r807,0r0,143r-328,0r0,1328r-150,0r0,-1328r-329,0","w":872},"U":{"d":"184,-1471r147,0r0,888v1,200,-5,240,57,343v65,106,277,181,430,106v88,-44,150,-115,178,-219v10,-37,15,-114,15,-230r0,-888r147,0r0,888v-3,271,-39,406,-192,530v-151,122,-428,113,-585,5v-84,-58,-141,-132,-170,-225v-18,-57,-27,-161,-27,-310r0,-888","w":1341},"V":{"d":"67,-1471r160,0r487,1137r496,-1137r160,0r-640,1471r-32,0","w":1438},"W":{"d":"96,-1471r151,0r299,1060r422,-1060r30,0r417,1060r305,-1060r150,0r-422,1471r-28,0r-436,-1113r-445,1113r-28,0","w":1966},"X":{"d":"101,-1471r172,0r352,574r355,-574r170,0r-438,713r467,758r-172,0r-382,-617r-384,617r-172,0r469,-758","w":1247},"Y":{"d":"63,-1471r170,0r376,606r370,-606r170,0r-466,768r0,703r-145,0r0,-703","w":1212},"Z":{"d":"122,-1329r0,-142r776,0r-615,1328r584,0r0,143r-811,0r619,-1329r-553,0","w":983},"[":{"d":"290,-1508r336,0r0,142r-196,0r0,1627r196,0r0,137r-336,0r0,-1906","w":719},"\\":{"d":"220,-1508r952,1708r-153,0r-953,-1708r154,0","w":1239},"]":{"d":"429,398r-336,0r0,-142r195,0r0,-1627r-195,0r0,-137r336,0r0,1906","w":719},"^":{"d":"629,-1471r118,0r510,1106r-133,0r-439,-952r-436,952r-129,0","w":1376},"_":{"d":"-12,154r1048,0r0,102r-1048,0r0,-102","w":1024},"`":{"d":"326,-1598r218,308r-138,0r-295,-308r215,0","w":774},"a":{"d":"669,-1116v206,5,337,94,433,228r0,-200r138,0r0,1088r-138,0r0,-187v-103,125,-234,210,-437,215v-303,7,-558,-267,-558,-575v0,-303,260,-576,562,-569xm1111,-538v4,-243,-191,-448,-431,-443v-254,6,-432,188,-432,439v0,249,180,442,431,442v252,0,427,-177,432,-438","w":1399},"b":{"d":"736,28v-206,-5,-335,-95,-432,-228r0,200r-139,0r0,-1508r139,0r0,607v103,-126,232,-210,436,-215v303,-7,558,267,558,574v0,304,-260,577,-562,570xm294,-550v-4,243,191,448,431,443v254,-6,432,-188,432,-439v0,-249,-179,-443,-430,-443v-252,0,-428,178,-433,439","w":1397},"c":{"d":"703,28v-327,6,-602,-248,-598,-563v3,-233,134,-416,298,-505v147,-79,344,-100,519,-43v134,44,223,110,290,221r-111,69v-96,-127,-227,-191,-393,-191v-253,0,-469,194,-462,439v7,263,191,445,463,445v160,0,291,-64,392,-191r111,73v-97,147,-274,242,-509,246","w":1325},"d":{"d":"671,-1116v206,5,337,94,433,228r0,-620r138,0r0,1508r-138,0r0,-187v-103,125,-234,210,-437,215v-303,7,-558,-267,-558,-575v0,-303,260,-576,562,-569xm1113,-538v4,-243,-191,-448,-431,-443v-254,6,-432,188,-432,439v0,249,180,442,431,442v252,0,427,-177,432,-438","w":1403},"e":{"d":"248,-533v-5,295,272,518,572,404v129,-49,175,-106,252,-232r118,62v-101,193,-244,327,-520,327v-177,0,-316,-58,-416,-174v-100,-116,-150,-248,-150,-395v0,-312,248,-575,558,-575v317,0,567,244,564,583r-978,0xm1072,-654v-37,-147,-101,-230,-223,-287v-158,-74,-343,-46,-460,62v-55,51,-98,125,-127,225r810,0","w":1331},"f":{"d":"604,-1508r0,137v-76,-31,-138,-53,-200,-17v-52,30,-41,49,-41,153r0,147r227,0r0,120r-228,0r0,968r-140,0r0,-968r-143,0r0,-120r143,0v1,-107,-6,-273,22,-337v50,-114,212,-136,360,-83","w":643},"g":{"d":"662,-1116v204,0,321,87,431,217r0,-189r141,0r0,867v0,153,-14,264,-40,335v-70,194,-259,316,-518,312v-301,-5,-467,-115,-562,-340r152,0v79,137,197,210,403,212v180,2,321,-77,382,-188v32,-58,45,-191,42,-317v-92,119,-242,207,-435,207v-322,0,-558,-225,-558,-552v0,-224,125,-401,282,-488v89,-50,182,-76,280,-76xm1100,-553v-3,-256,-172,-428,-420,-428v-256,0,-433,181,-439,436v-5,239,186,413,431,413v252,0,431,-171,428,-421","w":1378},"h":{"d":"296,-893v97,-127,215,-220,408,-223v173,-3,302,100,356,228v29,70,45,179,45,328r0,560r-140,0r0,-519v0,-125,-5,-209,-15,-251v-32,-135,-116,-216,-274,-217v-178,-1,-326,142,-360,292v-31,141,-17,493,-20,695r-140,0r0,-1508r140,0r0,615","w":1249},"i":{"d":"90,-1420v0,-62,54,-116,115,-116v62,0,116,54,116,116v0,61,-54,115,-116,115v-61,0,-115,-54,-115,-115xm135,-1088r141,0r0,1088r-141,0r0,-1088","w":410},"j":{"d":"93,-1420v0,-62,53,-116,115,-116v62,0,115,54,115,116v0,61,-53,115,-115,115v-62,0,-115,-54,-115,-115xm37,295v85,0,102,-55,102,-172r0,-1211r142,0r0,1252v1,159,-50,262,-185,262v-47,0,-101,-11,-160,-34r0,-126v37,19,71,29,101,29","w":416},"k":{"d":"155,-1508r141,0r0,858r503,-438r206,0r-597,519r632,569r-198,0r-546,-489r0,489r-141,0r0,-1508","w":1028},"l":{"d":"135,-1508r140,0r0,1508r-140,0r0,-1508","w":410},"m":{"d":"1011,-855v78,-146,207,-261,401,-261v163,0,278,92,328,216v27,68,42,170,42,306r0,594r-143,0r0,-594v-3,-203,-7,-274,-111,-346v-94,-66,-240,-50,-330,20v-137,106,-163,219,-163,494r0,426r-139,0r0,-557v-4,-224,-2,-300,-110,-381v-92,-69,-233,-53,-326,16v-130,96,-166,213,-166,461r0,461r-139,0r0,-1088r139,0r0,188v86,-128,199,-216,373,-216v190,0,294,100,344,261","w":1921},"n":{"d":"296,-893v96,-128,214,-223,408,-223v173,0,303,101,356,229v29,70,45,179,45,327r0,560r-139,0r0,-519v0,-125,-6,-209,-16,-251v-32,-135,-116,-216,-274,-217v-178,-1,-326,142,-360,292v-32,142,-17,493,-20,695r-140,0r0,-1088r140,0r0,195","w":1249},"o":{"d":"104,-541v0,-311,257,-575,567,-575v311,0,566,264,566,575v0,303,-249,569,-566,569v-318,0,-567,-265,-567,-569xm1095,-538v8,-233,-196,-441,-424,-441v-229,0,-432,208,-424,441v8,250,171,433,424,433v252,0,416,-183,424,-433","w":1341},"p":{"d":"733,28v-202,-4,-334,-91,-436,-215r0,585r-139,0r0,-1486r139,0r0,200v98,-134,226,-223,432,-228v302,-7,562,266,562,569v0,308,-255,582,-558,575xm1150,-542v0,-250,-178,-433,-432,-439v-240,-5,-435,200,-431,443v5,261,181,438,433,438v250,0,430,-193,430,-442","w":1397},"q":{"d":"668,-1116v206,5,337,94,433,228r0,-200r138,0r0,1486r-138,0r0,-585v-103,125,-234,210,-437,215v-303,7,-558,-267,-558,-575v0,-303,260,-576,562,-569xm1110,-538v4,-243,-191,-448,-431,-443v-254,6,-432,188,-432,439v0,249,180,442,431,442v252,0,427,-177,432,-438","w":1397},"r":{"d":"246,-929v83,-130,233,-246,407,-150r-73,118v-85,-38,-142,-17,-209,39v-44,37,-76,97,-99,178v-36,123,-24,531,-26,744r-143,0r0,-1088r143,0r0,159","w":616},"s":{"d":"103,-828v0,-164,132,-288,298,-288v100,0,201,49,302,147r-90,93v-75,-73,-148,-109,-219,-109v-128,0,-220,149,-125,251v29,31,83,71,168,115v104,54,175,106,212,156v37,50,55,108,55,171v0,177,-148,324,-329,320v-139,-3,-256,-68,-321,-154r88,-100v71,81,147,121,227,121v148,0,267,-167,163,-288v-26,-31,-85,-69,-176,-116v-98,-51,-165,-101,-200,-150v-35,-49,-53,-106,-53,-169","w":795},"t":{"d":"278,-1492r141,0r0,404r222,0r0,120r-222,0r0,968r-141,0r0,-968r-191,0r0,-120r191,0r0,-404","w":694},"u":{"d":"138,-1088r141,0v5,233,-22,584,20,764v30,129,156,216,316,216v157,0,279,-85,311,-205v44,-165,15,-549,21,-775r143,0r0,534v0,279,-53,415,-210,518v-132,86,-398,86,-530,0v-159,-104,-212,-243,-212,-528r0,-524","w":1245},"v":{"d":"53,-1088r149,0r364,792r361,-792r150,0r-498,1088r-25,0","w":1135},"w":{"d":"9,-1088r144,0r333,790r349,-790r25,0r348,790r339,-790r146,0r-472,1088r-27,0r-346,-779r-349,779r-26,0","w":1702},"x":{"d":"32,-1088r168,0r288,403r288,-403r168,0r-372,517r419,571r-170,0r-333,-457r-328,457r-167,0r412,-571","w":983},"y":{"d":"39,-1088r148,0r374,838r363,-838r149,0r-649,1486r-148,0r210,-480","w":1098},"z":{"d":"67,-1088r799,0r-616,964r596,0r0,124r-837,0r616,-965r-558,0r0,-123","w":870},"{":{"d":"242,-510v166,78,206,187,209,451v2,197,-11,220,29,310v37,41,71,41,174,43r0,157v-229,14,-334,-56,-362,-246v-11,-74,-7,-433,-30,-495v-30,-81,-86,-135,-187,-138r0,-163v148,-10,195,-95,204,-248v4,-68,6,-391,25,-447v49,-143,146,-197,350,-185r0,157v-166,-2,-203,28,-203,206v0,155,-2,254,-7,297v-20,171,-73,236,-202,301","w":719},"|":{"d":"616,-1508r143,0r0,1906r-143,0r0,-1906","w":1376},"}":{"d":"477,-510v-170,-88,-209,-180,-209,-450v0,-147,-4,-233,-9,-259v-17,-88,-78,-96,-194,-95r0,-157v228,-14,334,57,362,246v11,74,8,433,31,495v30,81,84,136,186,139r0,163v-92,1,-147,41,-174,103v-45,102,-30,164,-34,355v-4,186,-8,267,-83,350v-58,65,-151,75,-288,71r0,-157v166,2,203,-27,203,-205v0,-159,3,-261,8,-304v18,-160,80,-241,201,-295","w":719},"~":{"d":"874,-726v119,0,124,-39,254,-111r0,162v-116,61,-139,96,-252,96v-63,0,-151,-28,-265,-77v-130,-56,-135,-83,-237,-83v-115,0,-147,41,-262,105r0,-160v115,-60,138,-96,254,-96v65,0,153,29,268,81v118,54,137,83,240,83","w":1241},"\u00c4":{"d":"780,-1471r686,1471r-158,0r-231,-484r-634,0r-230,484r-164,0r695,-1471r36,0xm762,-1159r-253,533r503,0xm438,-1700v0,-62,54,-116,116,-116v62,0,116,54,116,116v0,62,-54,116,-116,116v-62,0,-116,-54,-116,-116xm846,-1700v0,-62,54,-116,116,-116v62,0,116,54,116,116v0,62,-54,116,-116,116v-62,0,-116,-54,-116,-116","w":1515},"\u00c5":{"d":"780,-1471r686,1471r-158,0r-231,-484r-634,0r-230,484r-164,0r695,-1471r36,0xm762,-1159r-253,533r503,0xm544,-1775v0,-115,98,-214,213,-214v115,0,213,99,213,214v0,115,-98,213,-213,213v-114,0,-213,-99,-213,-213xm865,-1778v0,-58,-51,-110,-109,-110v-59,0,-110,51,-110,110v0,59,51,110,110,110v58,0,109,-52,109,-110","w":1515},"\u00c7":{"d":"111,-744v0,-428,358,-772,794,-764v294,5,516,129,644,310r-116,89v-114,-150,-284,-254,-526,-254v-253,0,-462,139,-559,311v-54,96,-82,202,-82,321v0,356,289,629,650,629v206,0,378,-81,517,-242r116,88v-135,173,-350,287,-642,293v-457,9,-796,-329,-796,-781xm916,236v-10,-51,-71,-48,-132,-34r27,-202r88,0r-17,118v85,-17,153,30,153,104v0,103,-106,158,-229,158v-59,0,-115,-10,-167,-30r22,-69v86,27,242,41,255,-45","w":1665},"\u00c9":{"d":"180,-1471r843,0r0,145r-696,0r0,460r690,0r0,144r-690,0r0,577r690,0r0,145r-837,0r0,-1471xm677,-1895r215,0r-295,308r-138,0","w":1098},"\u00d1":{"d":"180,0r0,-1471r32,0r978,1126r0,-1126r145,0r0,1471r-33,0r-970,-1112r0,1112r-152,0xm616,-1815v74,0,220,79,287,79v37,0,87,-18,151,-53r70,97v-105,85,-233,118,-374,51v-70,-33,-69,-44,-135,-44v-77,0,-93,25,-158,69r-66,-102v61,-65,136,-97,225,-97","w":1515},"\u00d6":{"d":"892,37v-421,0,-784,-350,-777,-766v5,-309,170,-557,382,-677v119,-67,246,-102,383,-102v432,0,784,344,784,772v0,420,-352,773,-772,773xm268,-729v0,338,285,629,619,623v249,-4,446,-139,543,-310v105,-187,106,-450,0,-636v-96,-167,-300,-312,-543,-312v-241,0,-444,145,-537,314v-53,97,-82,203,-82,321xm570,-1700v0,-62,54,-116,116,-116v62,0,116,54,116,116v0,62,-54,116,-116,116v-62,0,-116,-54,-116,-116xm978,-1700v0,-62,54,-116,116,-116v62,0,116,54,116,116v0,62,-54,116,-116,116v-62,0,-116,-54,-116,-116","w":1780},"\u00dc":{"d":"184,-1471r147,0r0,888v1,200,-5,240,57,343v65,106,277,181,430,106v88,-44,150,-115,178,-219v10,-37,15,-114,15,-230r0,-888r147,0r0,888v-3,271,-39,406,-192,530v-151,122,-428,113,-585,5v-84,-58,-141,-132,-170,-225v-18,-57,-27,-161,-27,-310r0,-888xm351,-1700v0,-62,54,-116,116,-116v62,0,116,54,116,116v0,62,-54,116,-116,116v-62,0,-116,-54,-116,-116xm759,-1700v0,-62,54,-116,116,-116v62,0,116,54,116,116v0,62,-54,116,-116,116v-62,0,-116,-54,-116,-116","w":1341},"\u00e1":{"d":"669,-1116v206,5,337,94,433,228r0,-200r138,0r0,1088r-138,0r0,-187v-103,125,-234,210,-437,215v-303,7,-558,-267,-558,-575v0,-303,260,-576,562,-569xm1111,-538v4,-243,-191,-448,-431,-443v-254,6,-432,188,-432,439v0,249,180,442,431,442v252,0,427,-177,432,-438xm767,-1598r215,0r-295,308r-138,0","w":1399},"\u00e0":{"d":"669,-1116v206,5,337,94,433,228r0,-200r138,0r0,1088r-138,0r0,-187v-103,125,-234,210,-437,215v-303,7,-558,-267,-558,-575v0,-303,260,-576,562,-569xm1111,-538v4,-243,-191,-448,-431,-443v-254,6,-432,188,-432,439v0,249,180,442,431,442v252,0,427,-177,432,-438xm639,-1598r218,308r-138,0r-295,-308r215,0","w":1399},"\u00e2":{"d":"669,-1116v206,5,337,94,433,228r0,-200r138,0r0,1088r-138,0r0,-187v-103,125,-234,210,-437,215v-303,7,-558,-267,-558,-575v0,-303,260,-576,562,-569xm1111,-538v4,-243,-191,-448,-431,-443v-254,6,-432,188,-432,439v0,249,180,442,431,442v252,0,427,-177,432,-438xm633,-1542r139,0r290,257r-180,0r-176,-152r-184,152r-186,0","w":1399},"\u00e4":{"d":"669,-1116v206,5,337,94,433,228r0,-200r138,0r0,1088r-138,0r0,-187v-103,125,-234,210,-437,215v-303,7,-558,-267,-558,-575v0,-303,260,-576,562,-569xm1111,-538v4,-243,-191,-448,-431,-443v-254,6,-432,188,-432,439v0,249,180,442,431,442v252,0,427,-177,432,-438xm380,-1402v0,-62,54,-116,116,-116v62,0,116,54,116,116v0,62,-54,116,-116,116v-62,0,-116,-54,-116,-116xm788,-1402v0,-62,54,-116,116,-116v62,0,116,54,116,116v0,62,-54,116,-116,116v-62,0,-116,-54,-116,-116","w":1399},"\u00e3":{"d":"669,-1116v206,5,337,94,433,228r0,-200r138,0r0,1088r-138,0r0,-187v-103,125,-234,210,-437,215v-303,7,-558,-267,-558,-575v0,-303,260,-576,562,-569xm1111,-538v4,-243,-191,-448,-431,-443v-254,6,-432,188,-432,439v0,249,180,442,431,442v252,0,427,-177,432,-438xm558,-1518v74,0,220,79,287,79v37,0,87,-18,151,-53r70,97v-105,85,-233,118,-374,51v-70,-33,-69,-44,-135,-44v-77,0,-93,25,-158,69r-66,-102v61,-65,136,-97,225,-97","w":1399},"\u00e5":{"d":"669,-1116v206,5,337,94,433,228r0,-200r138,0r0,1088r-138,0r0,-187v-103,125,-234,210,-437,215v-303,7,-558,-267,-558,-575v0,-303,260,-576,562,-569xm1111,-538v4,-243,-191,-448,-431,-443v-254,6,-432,188,-432,439v0,249,180,442,431,442v252,0,427,-177,432,-438xm486,-1477v0,-115,98,-214,213,-214v115,0,213,99,213,214v0,115,-98,213,-213,213v-114,0,-213,-99,-213,-213xm807,-1480v0,-58,-51,-110,-109,-110v-59,0,-110,51,-110,110v0,59,51,110,110,110v58,0,109,-52,109,-110","w":1399},"\u00e7":{"d":"703,28v-327,6,-602,-248,-598,-563v3,-233,134,-416,298,-505v147,-79,344,-100,519,-43v134,44,223,110,290,221r-111,69v-96,-127,-227,-191,-393,-191v-253,0,-469,194,-462,439v7,263,191,445,463,445v160,0,291,-64,392,-191r111,73v-97,147,-274,242,-509,246xm747,236v-10,-51,-71,-48,-132,-34r27,-202r88,0r-17,118v85,-17,153,30,153,104v0,103,-106,158,-229,158v-59,0,-115,-10,-167,-30r22,-69v86,27,242,41,255,-45","w":1325},"\u00e9":{"d":"248,-533v-5,295,272,518,572,404v129,-49,175,-106,252,-232r118,62v-101,193,-244,327,-520,327v-177,0,-316,-58,-416,-174v-100,-116,-150,-248,-150,-395v0,-312,248,-575,558,-575v317,0,567,244,564,583r-978,0xm1072,-654v-37,-147,-101,-230,-223,-287v-158,-74,-343,-46,-460,62v-55,51,-98,125,-127,225r810,0xm734,-1598r215,0r-295,308r-138,0","w":1331},"\u00e8":{"d":"248,-533v-5,295,272,518,572,404v129,-49,175,-106,252,-232r118,62v-101,193,-244,327,-520,327v-177,0,-316,-58,-416,-174v-100,-116,-150,-248,-150,-395v0,-312,248,-575,558,-575v317,0,567,244,564,583r-978,0xm1072,-654v-37,-147,-101,-230,-223,-287v-158,-74,-343,-46,-460,62v-55,51,-98,125,-127,225r810,0xm605,-1598r218,308r-138,0r-295,-308r215,0","w":1331},"\u00ea":{"d":"248,-533v-5,295,272,518,572,404v129,-49,175,-106,252,-232r118,62v-101,193,-244,327,-520,327v-177,0,-316,-58,-416,-174v-100,-116,-150,-248,-150,-395v0,-312,248,-575,558,-575v317,0,567,244,564,583r-978,0xm1072,-654v-37,-147,-101,-230,-223,-287v-158,-74,-343,-46,-460,62v-55,51,-98,125,-127,225r810,0xm600,-1542r139,0r290,257r-180,0r-176,-152r-184,152r-186,0","w":1331},"\u00eb":{"d":"248,-533v-5,295,272,518,572,404v129,-49,175,-106,252,-232r118,62v-101,193,-244,327,-520,327v-177,0,-316,-58,-416,-174v-100,-116,-150,-248,-150,-395v0,-312,248,-575,558,-575v317,0,567,244,564,583r-978,0xm1072,-654v-37,-147,-101,-230,-223,-287v-158,-74,-343,-46,-460,62v-55,51,-98,125,-127,225r810,0xm346,-1402v0,-62,54,-116,116,-116v62,0,116,54,116,116v0,62,-54,116,-116,116v-62,0,-116,-54,-116,-116xm754,-1402v0,-62,54,-116,116,-116v62,0,116,54,116,116v0,62,-54,116,-116,116v-62,0,-116,-54,-116,-116","w":1331},"\u00ed":{"d":"135,-1088r141,0r0,1088r-141,0r0,-1088xm273,-1598r215,0r-295,308r-138,0","w":410},"\u00ec":{"d":"135,-1088r141,0r0,1088r-141,0r0,-1088xm144,-1598r218,308r-138,0r-295,-308r215,0","w":410},"\u00ee":{"d":"135,-1088r141,0r0,1088r-141,0r0,-1088xm139,-1542r139,0r290,257r-180,0r-176,-152r-184,152r-186,0","w":410},"\u00ef":{"d":"135,-1088r141,0r0,1088r-141,0r0,-1088xm-115,-1402v0,-62,54,-116,116,-116v62,0,116,54,116,116v0,62,-54,116,-116,116v-62,0,-116,-54,-116,-116xm293,-1402v0,-62,54,-116,116,-116v62,0,116,54,116,116v0,62,-54,116,-116,116v-62,0,-116,-54,-116,-116","w":410},"\u00f1":{"d":"296,-893v96,-128,214,-223,408,-223v173,0,303,101,356,229v29,70,45,179,45,327r0,560r-139,0r0,-519v0,-125,-6,-209,-16,-251v-32,-135,-116,-216,-274,-217v-178,-1,-326,142,-360,292v-32,142,-17,493,-20,695r-140,0r0,-1088r140,0r0,195xm483,-1518v74,0,220,79,287,79v37,0,87,-18,151,-53r70,97v-105,85,-233,118,-374,51v-70,-33,-69,-44,-135,-44v-77,0,-93,25,-158,69r-66,-102v61,-65,136,-97,225,-97","w":1249},"\u00f3":{"d":"104,-541v0,-311,257,-575,567,-575v311,0,566,264,566,575v0,303,-249,569,-566,569v-318,0,-567,-265,-567,-569xm1095,-538v8,-233,-196,-441,-424,-441v-229,0,-432,208,-424,441v8,250,171,433,424,433v252,0,416,-183,424,-433xm739,-1598r215,0r-295,308r-138,0","w":1341},"\u00f2":{"d":"104,-541v0,-311,257,-575,567,-575v311,0,566,264,566,575v0,303,-249,569,-566,569v-318,0,-567,-265,-567,-569xm1095,-538v8,-233,-196,-441,-424,-441v-229,0,-432,208,-424,441v8,250,171,433,424,433v252,0,416,-183,424,-433xm610,-1598r218,308r-138,0r-295,-308r215,0","w":1341},"\u00f4":{"d":"104,-541v0,-311,257,-575,567,-575v311,0,566,264,566,575v0,303,-249,569,-566,569v-318,0,-567,-265,-567,-569xm1095,-538v8,-233,-196,-441,-424,-441v-229,0,-432,208,-424,441v8,250,171,433,424,433v252,0,416,-183,424,-433xm605,-1542r139,0r290,257r-180,0r-176,-152r-184,152r-186,0","w":1341},"\u00f6":{"d":"104,-541v0,-311,257,-575,567,-575v311,0,566,264,566,575v0,303,-249,569,-566,569v-318,0,-567,-265,-567,-569xm1095,-538v8,-233,-196,-441,-424,-441v-229,0,-432,208,-424,441v8,250,171,433,424,433v252,0,416,-183,424,-433xm351,-1402v0,-62,54,-116,116,-116v62,0,116,54,116,116v0,62,-54,116,-116,116v-62,0,-116,-54,-116,-116xm759,-1402v0,-62,54,-116,116,-116v62,0,116,54,116,116v0,62,-54,116,-116,116v-62,0,-116,-54,-116,-116","w":1341},"\u00f5":{"d":"104,-541v0,-311,257,-575,567,-575v311,0,566,264,566,575v0,303,-249,569,-566,569v-318,0,-567,-265,-567,-569xm1095,-538v8,-233,-196,-441,-424,-441v-229,0,-432,208,-424,441v8,250,171,433,424,433v252,0,416,-183,424,-433xm529,-1518v74,0,220,79,287,79v37,0,87,-18,151,-53r70,97v-105,85,-233,118,-374,51v-70,-33,-69,-44,-135,-44v-77,0,-93,25,-158,69r-66,-102v61,-65,136,-97,225,-97","w":1341},"\u00fa":{"d":"138,-1088r141,0v5,233,-22,584,20,764v30,129,156,216,316,216v157,0,279,-85,311,-205v44,-165,15,-549,21,-775r143,0r0,534v0,279,-53,415,-210,518v-132,86,-398,86,-530,0v-159,-104,-212,-243,-212,-528r0,-524xm690,-1598r215,0r-295,308r-138,0","w":1245},"\u00f9":{"d":"138,-1088r141,0v5,233,-22,584,20,764v30,129,156,216,316,216v157,0,279,-85,311,-205v44,-165,15,-549,21,-775r143,0r0,534v0,279,-53,415,-210,518v-132,86,-398,86,-530,0v-159,-104,-212,-243,-212,-528r0,-524xm561,-1598r218,308r-138,0r-295,-308r215,0","w":1245},"\u00fb":{"d":"138,-1088r141,0v5,233,-22,584,20,764v30,129,156,216,316,216v157,0,279,-85,311,-205v44,-165,15,-549,21,-775r143,0r0,534v0,279,-53,415,-210,518v-132,86,-398,86,-530,0v-159,-104,-212,-243,-212,-528r0,-524xm556,-1542r139,0r290,257r-180,0r-176,-152r-184,152r-186,0","w":1245},"\u00fc":{"d":"138,-1088r141,0v5,233,-22,584,20,764v30,129,156,216,316,216v157,0,279,-85,311,-205v44,-165,15,-549,21,-775r143,0r0,534v0,279,-53,415,-210,518v-132,86,-398,86,-530,0v-159,-104,-212,-243,-212,-528r0,-524xm302,-1402v0,-62,54,-116,116,-116v62,0,116,54,116,116v0,62,-54,116,-116,116v-62,0,-116,-54,-116,-116xm710,-1402v0,-62,54,-116,116,-116v62,0,116,54,116,116v0,62,-54,116,-116,116v-62,0,-116,-54,-116,-116","w":1245},"\u2020":{"d":"489,-1508r149,0r-23,457r360,-21r0,149r-360,-26r27,1263r-153,0r29,-1263r-361,26r0,-149r361,21","w":1133},"\u00b0":{"d":"412,-1508v185,0,343,158,343,344v0,188,-159,344,-346,344v-188,0,-344,-157,-344,-347v0,-183,164,-341,347,-341xm412,-926v122,0,224,-112,224,-236v0,-129,-98,-240,-223,-240v-124,0,-229,112,-229,238v0,123,107,238,228,238","w":819},"\u00a2":{"d":"103,-535v-9,-373,329,-689,725,-548r133,-257r121,60r-132,257v48,31,87,62,116,94r-85,105v-31,-29,-62,-55,-95,-76r-394,766v179,71,294,20,450,-96r91,106v-133,121,-378,202,-604,115r-152,295r-117,-64r151,-301v-126,-114,-204,-243,-208,-456xm765,-961v-291,-91,-527,131,-521,418v3,155,48,257,133,334","w":1135},"\u00a3":{"d":"57,-151v0,-122,103,-232,222,-232v45,0,93,13,144,39v17,-146,3,-252,-38,-371r-286,0r0,-129r254,0v-52,-200,-66,-190,-71,-335v-6,-181,171,-334,361,-329v145,4,232,68,289,166v31,54,50,126,57,217r-136,0v-3,-146,-70,-246,-206,-249v-129,-2,-225,80,-225,205v0,118,55,224,81,325r320,0r0,129r-286,0v41,135,51,314,15,452v56,41,171,151,276,151v63,0,99,-77,106,-232r141,0v4,139,-46,288,-118,344v-33,25,-71,37,-112,37v-138,0,-254,-87,-342,-160v-55,107,-134,160,-237,160v-122,0,-209,-69,-209,-188xm194,-171v0,40,29,76,67,75v50,0,91,-37,124,-111v-45,-27,-83,-41,-114,-41v-43,-1,-77,34,-77,77","w":1135},"\u00a7":{"d":"212,-1219v-4,-195,162,-317,372,-317v228,0,359,130,380,342r-147,0v-13,-121,-98,-201,-231,-201v-156,0,-282,122,-208,261v60,113,137,140,281,231v171,108,241,128,311,264v103,198,-71,388,-257,415v116,71,215,180,218,336v4,185,-168,314,-369,314v-206,0,-372,-122,-400,-288r148,0v33,99,124,155,243,157v125,3,228,-71,230,-181v0,-45,-17,-89,-50,-132v-33,-43,-110,-102,-230,-179v-115,-73,-185,-119,-210,-138v-91,-71,-163,-149,-163,-281v0,-165,118,-258,260,-300v-109,-81,-175,-148,-178,-303xm596,-306v179,-6,335,-180,210,-331v-26,-31,-152,-114,-299,-202v-127,18,-231,89,-231,216v0,49,18,93,53,133v46,53,135,114,267,184","w":1259},"\u2022":{"d":"313,-746v0,-165,142,-307,307,-307v165,0,307,142,307,307v0,166,-142,308,-307,308v-165,0,-307,-142,-307,-308","w":1241},"\u00b6":{"d":"94,-1105v3,-244,142,-408,415,-408r513,0r0,75r-84,0r0,1669r-119,0r0,-1669r-217,0r0,1669r-119,0r0,-937v-130,1,-178,-20,-252,-76v-82,-62,-139,-181,-137,-323","w":1155},"\u00df":{"d":"834,-1168v3,-133,-111,-235,-248,-233v-122,2,-223,77,-259,171v-16,41,-24,123,-24,248r0,982r-141,0r0,-995v2,-278,32,-378,186,-479v65,-43,145,-62,235,-62v223,0,396,149,394,362v-1,147,-83,245,-189,299v-33,17,-78,29,-137,37v166,23,248,91,318,199v43,65,61,144,61,231v0,247,-173,436,-417,436v-82,0,-151,-16,-208,-49r0,-133v70,33,133,49,188,49v171,2,300,-132,297,-307v-4,-219,-162,-344,-395,-347r0,-157v189,13,335,-90,339,-252","w":1135},"\u00ae":{"d":"1445,-1151v138,242,138,545,1,785v-123,215,-370,393,-680,393v-309,0,-557,-179,-680,-393v-138,-241,-137,-543,0,-784v124,-217,368,-394,680,-394v312,0,555,177,679,393xm1352,-420v118,-207,118,-470,-1,-678v-107,-187,-315,-340,-583,-340v-268,0,-483,154,-588,340v-117,208,-118,472,0,679v106,185,321,339,588,339v265,0,479,-156,584,-340xm1024,-764v85,45,102,75,103,205v1,86,-7,171,32,222r15,24r-160,0v-30,-84,-13,-252,-48,-330v-33,-45,-63,-47,-157,-47r-227,0r0,377r-143,0r0,-904r377,0v163,1,225,21,284,113v25,39,37,87,37,140v0,109,-31,147,-113,200xm994,-954v0,-108,-57,-132,-181,-133r-231,0r0,268r222,0v133,1,190,-26,190,-135","w":1530},"\u00a9":{"d":"1446,-1148v137,239,137,545,0,783v-124,214,-369,392,-680,392v-310,0,-558,-179,-681,-393v-137,-239,-137,-544,0,-782v124,-215,369,-392,681,-392v310,0,557,178,680,392xm1352,-418v118,-206,118,-472,0,-678v-107,-185,-318,-338,-587,-338v-267,0,-479,154,-585,339v-118,207,-118,471,0,677v106,186,318,338,586,338v267,0,480,-153,586,-338xm355,-753v0,-279,159,-475,416,-478v214,-2,363,116,379,307r-136,0v-27,-114,-100,-178,-235,-178v-186,0,-281,144,-281,351v0,200,90,344,267,344v150,0,230,-100,249,-246r136,0v-19,203,-168,358,-380,358v-260,1,-415,-186,-415,-458","w":1530},"\u2122":{"d":"1966,-1513r0,862r-150,0r0,-710r-321,710r-99,0r-311,-710r0,710r-149,0r0,-862r243,0r267,597r282,-597r238,0xm770,-1513r0,137r-305,0r0,725r-150,0r0,-725r-303,0r0,-137r758,0","w":2048},"\u00b4":{"d":"452,-1598r215,0r-295,308r-138,0","w":768},"\u00a8":{"d":"58,-1402v0,-62,54,-116,116,-116v62,0,116,54,116,116v0,62,-54,116,-116,116v-62,0,-116,-54,-116,-116xm466,-1402v0,-62,54,-116,116,-116v62,0,116,54,116,116v0,62,-54,116,-116,116v-62,0,-116,-54,-116,-116","w":756},"\u2260":{"d":"742,-1024r326,0r0,137r-379,0r-117,303r496,0r0,137r-549,0r-187,484r-138,0r186,-484r-324,0r0,-137r377,0r116,-303r-493,0r0,-137r545,0r186,-484r142,0","w":1124},"\u00c6":{"d":"1,0r950,-1471r910,0r0,151r-693,0r0,452r693,0r0,145r-693,0r0,579r693,0r0,144r-842,0r0,-482r-535,0r-312,482r-171,0xm578,-620r441,0r0,-681","w":2032},"\u00d8":{"d":"1663,-736v8,420,-352,773,-772,773v-163,0,-309,-43,-437,-128r-164,194r-107,-87r165,-194v-253,-231,-308,-625,-131,-944v121,-218,358,-386,672,-386v171,0,327,49,467,148r144,-174r105,87r-151,178v122,124,205,302,209,533xm444,-291r811,-954v-198,-142,-461,-160,-678,-34v-176,102,-310,291,-310,551v0,170,59,316,177,437xm1356,-1153r-805,949v189,126,451,129,651,15v176,-100,309,-290,309,-547v0,-163,-52,-302,-155,-417","w":1778},"\u221e":{"d":"152,-716v0,-141,109,-267,246,-267v102,0,198,57,289,171v78,-97,139,-161,186,-189v203,-120,435,27,435,278v0,202,-111,335,-288,335v-58,0,-110,-16,-156,-49v-46,-33,-106,-94,-177,-183v-91,114,-187,171,-289,171v-137,0,-246,-126,-246,-267xm1197,-713v0,-171,-154,-277,-287,-181v-34,24,-85,83,-154,177v55,85,106,145,152,180v33,25,70,38,110,38v111,-1,179,-92,179,-214xm263,-719v0,87,56,156,137,156v67,0,140,-51,218,-153v-81,-94,-108,-149,-220,-157v-82,-6,-135,66,-135,154"},"\u00b1":{"d":"493,-913r0,-434r137,0r0,434r438,0r0,137r-438,0r0,434r-137,0r0,-434r-437,0r0,-137r437,0xm1068,-161r0,137r-1012,0r0,-137r1012,0","w":1124},"\u2264":{"d":"1079,-481r0,146r-1033,-469r0,-130r1033,-471r0,147r-839,390xm1079,-231r0,137r-1033,0r0,-137r1033,0","w":1124},"\u2265":{"d":"46,-481r839,-387r-839,-390r0,-147r1033,471r0,130r-1033,469r0,-146xm1079,-231r0,137r-1033,0r0,-137r1033,0","w":1124},"\u00a5":{"d":"906,-1471r166,0r-417,735r356,0r0,117r-374,0r0,155r374,0r0,117r-374,0r0,347r-144,0r0,-347r-370,0r0,-117r370,0r0,-155r-370,0r0,-117r353,0r-414,-735r167,0r337,602","w":1135},"\u00b5":{"d":"591,25v-141,0,-234,-55,-303,-140r0,513r-141,0r0,-1486r141,0r0,600v1,178,36,249,142,316v94,60,225,62,318,2v99,-64,145,-160,145,-331r0,-587r140,0r0,1088r-140,0r0,-118v-71,88,-158,143,-302,143","w":1180},"\u2202":{"d":"364,25v-192,0,-308,-143,-308,-347v0,-157,55,-290,164,-398v133,-131,345,-199,638,-204v-3,-127,-13,-219,-30,-276v-27,-94,-77,-163,-175,-163v-95,0,-171,75,-227,225r-135,-60v45,-99,99,-173,163,-221v113,-86,247,-101,359,-16v218,166,187,746,73,1023v-60,146,-136,256,-232,328v-96,72,-193,109,-290,109xm236,-303v0,102,76,192,170,191v58,0,121,-23,186,-73v154,-118,236,-336,262,-611v-308,22,-425,59,-544,244v-51,80,-74,164,-74,249","w":1012},"\u2211":{"d":"139,-1536r1237,0r0,164r-988,0r607,796r-646,841r1037,0r0,161r-1264,0r0,-187r620,-808r-603,-791r0,-176"},"\u220f":{"d":"162,-1536r1362,0r0,1962r-191,0r0,-1788r-978,0r0,1788r-193,0r0,-1962","w":1685},"\uf006":{"d":"0,-1063r1124,0r0,158r-162,0r0,905r-189,0r0,-905r-426,0r0,905r-188,0r0,-905r-159,0r0,-158","w":1124},"\u222b":{"d":"208,64v28,0,40,-26,39,-61v0,-28,-3,-68,-9,-120v-39,-339,-52,-883,-21,-1330v12,-179,29,-306,125,-384v81,-66,214,-19,218,75v3,57,-38,104,-92,104v-34,8,-82,-56,-116,-56v-31,0,-40,25,-40,64v0,28,3,76,9,145v47,607,43,535,22,1232v-6,203,-34,340,-84,410v-37,51,-84,77,-141,77v-69,0,-118,-52,-118,-121v0,-55,37,-100,90,-99v46,-9,85,64,118,64","w":561},"\u00aa":{"d":"345,-1508v98,0,158,50,205,116r0,-99r114,0r0,681r-114,0r0,-94v-49,63,-108,110,-207,110v-164,0,-286,-175,-286,-358v0,-182,125,-356,288,-356xm556,-1148v0,-131,-77,-251,-191,-251v-112,0,-192,121,-192,249v0,128,80,252,191,252v115,0,192,-117,192,-250","w":756},"\u00ba":{"d":"55,-1149v0,-191,142,-359,322,-359v181,0,323,169,323,359v0,190,-141,355,-323,355v-180,0,-322,-166,-322,-355xm583,-1147v0,-128,-90,-251,-206,-251v-115,0,-205,124,-205,251v0,130,86,246,205,246v119,1,206,-117,206,-246","w":756},"\u2126":{"d":"362,-780v0,296,137,509,342,600r0,180r-577,0r0,-168r369,8v-217,-132,-341,-315,-346,-642v-5,-288,129,-510,316,-616v98,-57,212,-85,342,-85v388,0,654,303,647,702v-5,320,-138,506,-344,641r364,-6r0,166r-575,0r0,-177v149,-72,226,-166,292,-315v78,-175,71,-421,-6,-590v-72,-159,-177,-258,-382,-258v-285,0,-442,242,-442,560","w":1573},"\u00e6":{"d":"677,-1116v201,0,333,91,440,226r0,-198r128,0r0,197v125,-144,211,-220,437,-225v326,-8,575,255,566,586r-979,0v16,243,171,430,427,430v203,0,313,-105,397,-257r120,60v-87,188,-271,325,-527,325v-208,0,-340,-84,-441,-222r0,194r-128,0r0,-201v-110,141,-230,223,-436,229v-304,9,-568,-268,-561,-576v5,-229,122,-402,279,-492v88,-50,180,-76,278,-76xm2093,-651v-37,-149,-101,-228,-222,-289v-190,-96,-426,-2,-512,114v-36,49,-65,105,-82,175r816,0xm1120,-542v-4,-270,-174,-439,-433,-439v-251,0,-418,181,-424,437v-5,242,190,439,429,439v239,0,431,-195,428,-437","w":2370},"\u00f8":{"d":"102,-541v0,-303,248,-575,566,-575v134,0,251,40,351,120r116,-137r92,74r-125,146v89,107,133,231,133,372v0,303,-249,569,-566,569v-109,0,-209,-27,-299,-82r-116,137r-89,-74r114,-134v-118,-114,-177,-253,-177,-416xm669,-979v-300,0,-503,304,-391,609v20,55,51,102,89,141r560,-658v-79,-61,-165,-92,-258,-92xm668,-105v252,0,425,-182,425,-432v0,-96,-29,-184,-86,-265r-548,644v69,35,138,53,209,53","w":1337},"\u00bf":{"d":"481,-986v0,-66,57,-124,123,-124v67,0,123,57,123,124v0,67,-56,124,-123,124v-67,0,-123,-57,-123,-124xm601,286v178,-4,295,-105,295,-297r145,0v1,264,-174,437,-438,437v-237,0,-420,-132,-420,-345v0,-110,56,-178,123,-237v62,-54,413,-181,454,-225v103,-109,-19,-251,-162,-243v-143,8,-202,74,-217,212r-146,0v7,-216,143,-353,363,-353v236,0,432,187,328,405v-51,108,-113,119,-258,181v-143,61,-236,103,-276,132v-41,29,-61,71,-61,125v2,128,125,211,270,208","w":1210},"\u00a1":{"d":"179,-986v0,-66,57,-124,123,-124v67,0,123,57,123,124v0,67,-56,124,-123,124v-67,0,-123,-57,-123,-124xm231,426r0,-1140r145,0r0,1140r-145,0","w":604},"\u00ac":{"d":"1127,-1024r0,577r-137,0r-1,-440r-874,0r0,-137r1012,0","w":1241},"\u221a":{"d":"1047,-1869r74,0r-312,1947r-496,-1021r-198,91r-34,-64r301,-151r405,823","w":1124},"\u0192":{"d":"621,-882r231,0r-17,122r-233,0r-107,710v-19,131,-47,226,-74,291v-61,146,-232,248,-389,136r18,-124v82,68,174,60,234,-28v34,-49,62,-147,83,-296r101,-689r-141,0r17,-122r141,0v29,-164,51,-461,114,-558v82,-127,218,-120,343,-31r-18,133v-51,-49,-98,-73,-139,-73v-33,0,-59,14,-75,45v-48,94,-65,343,-89,484","w":1135},"\u2248":{"d":"816,-912v119,0,124,-39,254,-111r0,162v-116,61,-139,96,-252,96v-63,0,-151,-28,-265,-77v-130,-56,-135,-83,-237,-83v-115,0,-147,41,-262,105r0,-160v115,-61,138,-96,254,-96v65,0,153,29,268,81v118,54,137,83,240,83xm816,-540v119,0,124,-39,254,-111r0,162v-116,61,-139,96,-252,96v-63,0,-151,-28,-265,-77v-130,-56,-135,-83,-237,-83v-115,0,-147,42,-262,105r0,-160v115,-60,138,-96,254,-96v65,0,153,29,268,81v118,54,137,83,240,83","w":1124},"\u2206":{"d":"1226,0r-1200,0r628,-1387xm990,-82r-399,-967r-440,967r839,0","w":1253},"\u00ab":{"d":"391,-1088r-223,546r223,542r-148,0r-222,-542r222,-546r148,0xm849,-1088r-224,546r224,542r-148,0r-222,-542r222,-546r148,0","w":870},"\u00bb":{"d":"479,0r223,-545r-223,-543r147,0r223,543r-223,545r-147,0xm21,0r223,-545r-223,-543r148,0r222,543r-222,545r-148,0","w":870},"\u2026":{"d":"901,-96v0,-67,56,-124,123,-124v67,0,123,57,123,124v0,66,-57,124,-123,124v-66,0,-123,-58,-123,-124xm218,-96v0,-67,56,-124,123,-124v67,0,123,57,123,124v0,66,-57,124,-123,124v-66,0,-123,-58,-123,-124xm1584,-96v0,-67,56,-124,123,-124v66,0,123,57,123,124v0,66,-58,124,-123,124v-66,0,-123,-58,-123,-124","w":2048},"\u00a0":{"w":573},"\u00c0":{"d":"780,-1471r686,1471r-158,0r-231,-484r-634,0r-230,484r-164,0r695,-1471r36,0xm762,-1159r-253,533r503,0xm697,-1895r218,308r-138,0r-295,-308r215,0","w":1515},"\u00c3":{"d":"780,-1471r686,1471r-158,0r-231,-484r-634,0r-230,484r-164,0r695,-1471r36,0xm762,-1159r-253,533r503,0xm616,-1815v74,0,220,79,287,79v37,0,87,-18,151,-53r70,97v-105,85,-233,118,-374,51v-70,-33,-69,-44,-135,-44v-77,0,-93,25,-158,69r-66,-102v61,-65,136,-97,225,-97","w":1515},"\u00d5":{"d":"892,37v-421,0,-784,-350,-777,-766v5,-309,170,-557,382,-677v119,-67,246,-102,383,-102v432,0,784,344,784,772v0,420,-352,773,-772,773xm268,-729v0,338,285,629,619,623v249,-4,446,-139,543,-310v105,-187,106,-450,0,-636v-96,-167,-300,-312,-543,-312v-241,0,-444,145,-537,314v-53,97,-82,203,-82,321xm748,-1815v74,0,220,79,287,79v37,0,87,-18,151,-53r70,97v-105,85,-233,118,-374,51v-70,-33,-69,-44,-135,-44v-77,0,-93,25,-158,69r-66,-102v61,-65,136,-97,225,-97","w":1780},"\u0152":{"d":"896,-1508v268,0,498,147,626,322r0,-285r838,0r0,145r-689,0r0,457r689,0r0,145r-689,0r0,579r689,0r0,145r-838,0r0,-285v-154,198,-308,322,-628,322v-246,0,-443,-93,-598,-273v-207,-241,-240,-591,-80,-882v118,-216,373,-390,680,-390xm903,-106v334,0,624,-294,617,-631v-6,-254,-138,-443,-316,-543v-100,-56,-204,-86,-313,-86v-321,0,-618,303,-618,626v0,344,287,634,630,634","w":2445},"\u0153":{"d":"1657,-1116v310,-5,582,258,557,585r-976,0v6,266,183,430,425,430v196,0,331,-111,398,-260r119,61v-112,203,-248,323,-526,328v-136,2,-264,-49,-343,-111v-43,-33,-91,-88,-145,-164v-107,160,-251,270,-489,275v-308,7,-565,-267,-565,-578v0,-306,258,-571,566,-566v232,4,380,116,488,288v107,-176,250,-284,491,-288xm1099,-537v4,-241,-191,-450,-427,-444v-247,6,-421,191,-421,439v0,254,182,441,430,441v244,0,413,-181,418,-436xm2061,-651v-46,-190,-187,-329,-403,-329v-211,0,-361,131,-407,329r810,0","w":2329},"\u2013":{"d":"-12,-637r1048,0r0,129r-1048,0r0,-129","w":1024},"\u2014":{"d":"-12,-637r2072,0r0,129r-2072,0r0,-129","w":2048},"\u201c":{"d":"289,-1508r78,44v-46,95,-58,118,-71,230r89,0r0,275r-181,0v1,-122,-4,-289,18,-375v12,-49,34,-107,67,-174xm734,-1508r78,44v-46,95,-58,118,-71,230r89,0r0,275r-181,0v1,-121,-4,-289,17,-375v12,-49,34,-107,68,-174","w":1028},"\u201d":{"d":"721,-959r-77,-44v45,-95,59,-118,70,-230r-88,0r0,-275r181,0v-1,122,5,288,-17,374v-12,49,-35,108,-69,175xm276,-959r-77,-44v45,-95,59,-118,70,-230r-88,0r0,-275r181,0v-1,122,4,288,-18,374v-12,49,-34,108,-68,175","w":991},"\u2018":{"d":"371,-1508r78,44v-46,95,-58,118,-71,230r89,0r0,275r-181,0v1,-122,-4,-289,18,-375v12,-49,34,-107,67,-174","w":719},"\u2019":{"d":"347,-959r-77,-44v45,-95,59,-118,70,-230r-88,0r0,-275r181,0v-1,122,5,288,-17,374v-12,49,-35,108,-69,175","w":719},"\u00f7":{"d":"461,-1207r201,0r0,202r-201,0r0,-202xm56,-804r1012,0r0,137r-1012,0r0,-137xm461,-466r201,0r0,205r-201,0r0,-205","w":1124},"\u25ca":{"d":"549,-1422r418,713r-418,709r-111,0r-391,-709r391,-713r111,0xm495,-1325r-340,616r340,615r359,-615","w":1012},"\u00ff":{"d":"39,-1088r148,0r374,838r363,-838r149,0r-649,1486r-148,0r210,-480xm239,-1402v0,-62,54,-116,116,-116v62,0,116,54,116,116v0,62,-54,116,-116,116v-62,0,-116,-54,-116,-116xm647,-1402v0,-62,54,-116,116,-116v62,0,116,54,116,116v0,62,-54,116,-116,116v-62,0,-116,-54,-116,-116","w":1098},"\u0178":{"d":"63,-1471r170,0r376,606r370,-606r170,0r-466,768r0,703r-145,0r0,-703xm286,-1700v0,-62,54,-116,116,-116v62,0,116,54,116,116v0,62,-54,116,-116,116v-62,0,-116,-54,-116,-116xm694,-1700v0,-62,54,-116,116,-116v62,0,116,54,116,116v0,62,-54,116,-116,116v-62,0,-116,-54,-116,-116","w":1212},"\u2044":{"d":"-347,37r923,-1545r112,0r-925,1545r-110,0","w":340},"\u2215":{"d":"-347,37r923,-1545r112,0r-925,1545r-110,0","w":340},"\u20ac":{"d":"1108,23v-465,69,-821,-177,-913,-539r-148,0r35,-137r88,0v-5,-76,-6,-99,0,-174r-123,0r37,-138r113,0v101,-351,459,-604,921,-528r-37,141v-344,-60,-623,132,-721,387r639,0r-36,138r-637,0v-8,60,-9,107,-2,174r591,0r-36,137r-525,0v90,273,389,473,754,399r0,140","w":1135},"\u2039":{"d":"445,-1088r-223,546r223,542r-148,0r-222,-542r222,-546r148,0","w":514},"\u203a":{"d":"70,0r223,-545r-223,-543r148,0r222,543r-222,545r-148,0","w":514},"\uf001":{"d":"858,-1264r-142,0v-19,-92,-75,-138,-167,-138v-83,-1,-138,42,-163,100v-14,32,-19,136,-18,214r226,0r0,123r-226,0r0,965r-142,0r0,-965r-142,0r0,-123r142,0v-14,-286,73,-439,325,-448v172,-6,298,113,307,272xm716,-1088r142,0r0,1088r-142,0r0,-1088","w":997},"\ufb01":{"d":"858,-1264r-142,0v-19,-92,-75,-138,-167,-138v-83,-1,-138,42,-163,100v-14,32,-19,136,-18,214r226,0r0,123r-226,0r0,965r-142,0r0,-965r-142,0r0,-123r142,0v-14,-286,73,-439,325,-448v172,-6,298,113,307,272xm716,-1088r142,0r0,1088r-142,0r0,-1088","w":997},"\uf002":{"d":"603,-1088r0,124r-224,0r0,964r-144,0r0,-964r-143,0r0,-124r143,0v-2,-216,21,-323,143,-400v98,-62,255,-65,350,1v119,83,137,156,137,380r0,1107r-143,0r0,-1115v-3,-156,1,-205,-74,-262v-54,-40,-144,-42,-196,1v-78,65,-71,104,-73,288r224,0","w":993},"\ufb02":{"d":"603,-1088r0,124r-224,0r0,964r-144,0r0,-964r-143,0r0,-124r143,0v-2,-216,21,-323,143,-400v98,-62,255,-65,350,1v119,83,137,156,137,380r0,1107r-143,0r0,-1115v-3,-156,1,-205,-74,-262v-54,-40,-144,-42,-196,1v-78,65,-71,104,-73,288r224,0","w":993},"\u2021":{"d":"492,-1508r147,0r-23,354r358,-23r0,148r-358,-27r23,459r-23,452r358,-20r0,148r-358,-28r23,359r-147,0r24,-359r-357,28r0,-148r357,20r-24,-452r24,-459r-357,27r0,-148r357,23","w":1133},"\u2219":{"d":"161,-735v0,-67,56,-124,123,-124v67,0,123,57,123,124v0,66,-57,124,-123,124v-66,0,-123,-58,-123,-124","w":567},"\u201a":{"d":"350,274r-77,-43v45,-94,59,-119,70,-231r-88,0r0,-275r181,0v-1,122,4,289,-18,375v-12,49,-34,107,-68,174","w":725},"\u201e":{"d":"738,274r-77,-44v45,-95,59,-118,70,-230r-88,0r0,-275r181,0v-1,122,4,289,-18,375v-12,49,-34,107,-68,174xm293,274r-77,-44v45,-95,59,-118,70,-230r-88,0r0,-275r181,0v-1,122,5,289,-17,375v-12,49,-35,107,-69,174","w":1028},"\u2030":{"d":"796,-1462v197,-6,286,-23,470,-74r118,0r-1072,1638r-132,0r975,-1492v-126,31,-298,46,-476,41v164,221,-21,535,-287,535v-188,0,-346,-158,-343,-345v4,-204,148,-349,343,-349v110,0,267,50,404,46xm615,-1161v0,-118,-102,-220,-220,-220v-118,0,-219,102,-219,220v0,118,101,219,219,219v118,0,220,-101,220,-219xm852,-303v0,-185,161,-346,346,-346v185,0,346,161,346,346v0,185,-161,346,-346,346v-185,0,-346,-161,-346,-346xm1418,-303v0,-118,-102,-219,-220,-219v-118,0,-219,101,-219,219v0,118,101,219,219,219v118,0,220,-101,220,-219xm1650,-303v0,-186,160,-346,346,-346v186,0,345,161,345,346v0,185,-160,346,-345,346v-187,0,-346,-160,-346,-346xm2215,-303v0,-118,-101,-219,-219,-219v-118,0,-220,101,-220,219v0,118,102,219,220,219v118,0,219,-101,219,-219","w":2404},"\u00c2":{"d":"780,-1471r686,1471r-158,0r-231,-484r-634,0r-230,484r-164,0r695,-1471r36,0xm762,-1159r-253,533r503,0xm691,-1840r139,0r290,257r-180,0r-176,-152r-184,152r-186,0","w":1515},"\u00ca":{"d":"180,-1471r843,0r0,145r-696,0r0,460r690,0r0,144r-690,0r0,577r690,0r0,145r-837,0r0,-1471xm543,-1840r139,0r290,257r-180,0r-176,-152r-184,152r-186,0","w":1098},"\u00c1":{"d":"780,-1471r686,1471r-158,0r-231,-484r-634,0r-230,484r-164,0r695,-1471r36,0xm762,-1159r-253,533r503,0xm825,-1895r215,0r-295,308r-138,0","w":1515},"\u00cb":{"d":"180,-1471r843,0r0,145r-696,0r0,460r690,0r0,144r-690,0r0,577r690,0r0,145r-837,0r0,-1471xm290,-1700v0,-62,54,-116,116,-116v62,0,116,54,116,116v0,62,-54,116,-116,116v-62,0,-116,-54,-116,-116xm698,-1700v0,-62,54,-116,116,-116v62,0,116,54,116,116v0,62,-54,116,-116,116v-62,0,-116,-54,-116,-116","w":1098},"\u00c8":{"d":"180,-1471r843,0r0,145r-696,0r0,460r690,0r0,144r-690,0r0,577r690,0r0,145r-837,0r0,-1471xm549,-1895r218,308r-138,0r-295,-308r215,0","w":1098},"\u00cd":{"d":"158,-1471r147,0r0,1471r-147,0r0,-1471xm299,-1895r215,0r-295,308r-138,0","w":463},"\u00ce":{"d":"158,-1471r147,0r0,1471r-147,0r0,-1471xm165,-1840r139,0r290,257r-180,0r-176,-152r-184,152r-186,0","w":463},"\u00cf":{"d":"158,-1471r147,0r0,1471r-147,0r0,-1471xm-88,-1700v0,-62,54,-116,116,-116v62,0,116,54,116,116v0,62,-54,116,-116,116v-62,0,-116,-54,-116,-116xm320,-1700v0,-62,54,-116,116,-116v62,0,116,54,116,116v0,62,-54,116,-116,116v-62,0,-116,-54,-116,-116","w":463},"\u00cc":{"d":"158,-1471r147,0r0,1471r-147,0r0,-1471xm171,-1895r218,308r-138,0r-295,-308r215,0","w":463},"\u00d3":{"d":"892,37v-421,0,-784,-350,-777,-766v5,-309,170,-557,382,-677v119,-67,246,-102,383,-102v432,0,784,344,784,772v0,420,-352,773,-772,773xm268,-729v0,338,285,629,619,623v249,-4,446,-139,543,-310v105,-187,106,-450,0,-636v-96,-167,-300,-312,-543,-312v-241,0,-444,145,-537,314v-53,97,-82,203,-82,321xm958,-1895r215,0r-295,308r-138,0","w":1780},"\u00d4":{"d":"892,37v-421,0,-784,-350,-777,-766v5,-309,170,-557,382,-677v119,-67,246,-102,383,-102v432,0,784,344,784,772v0,420,-352,773,-772,773xm268,-729v0,338,285,629,619,623v249,-4,446,-139,543,-310v105,-187,106,-450,0,-636v-96,-167,-300,-312,-543,-312v-241,0,-444,145,-537,314v-53,97,-82,203,-82,321xm824,-1840r139,0r290,257r-180,0r-176,-152r-184,152r-186,0","w":1780},"\uf000":{"w":1617},"\u00d2":{"d":"892,37v-421,0,-784,-350,-777,-766v5,-309,170,-557,382,-677v119,-67,246,-102,383,-102v432,0,784,344,784,772v0,420,-352,773,-772,773xm268,-729v0,338,285,629,619,623v249,-4,446,-139,543,-310v105,-187,106,-450,0,-636v-96,-167,-300,-312,-543,-312v-241,0,-444,145,-537,314v-53,97,-82,203,-82,321xm829,-1895r218,308r-138,0r-295,-308r215,0","w":1780},"\u00da":{"d":"184,-1471r147,0r0,888v1,200,-5,240,57,343v65,106,277,181,430,106v88,-44,150,-115,178,-219v10,-37,15,-114,15,-230r0,-888r147,0r0,888v-3,271,-39,406,-192,530v-151,122,-428,113,-585,5v-84,-58,-141,-132,-170,-225v-18,-57,-27,-161,-27,-310r0,-888xm739,-1895r215,0r-295,308r-138,0","w":1341},"\u00db":{"d":"184,-1471r147,0r0,888v1,200,-5,240,57,343v65,106,277,181,430,106v88,-44,150,-115,178,-219v10,-37,15,-114,15,-230r0,-888r147,0r0,888v-3,271,-39,406,-192,530v-151,122,-428,113,-585,5v-84,-58,-141,-132,-170,-225v-18,-57,-27,-161,-27,-310r0,-888xm605,-1840r139,0r290,257r-180,0r-176,-152r-184,152r-186,0","w":1341},"\u00d9":{"d":"184,-1471r147,0r0,888v1,200,-5,240,57,343v65,106,277,181,430,106v88,-44,150,-115,178,-219v10,-37,15,-114,15,-230r0,-888r147,0r0,888v-3,271,-39,406,-192,530v-151,122,-428,113,-585,5v-84,-58,-141,-132,-170,-225v-18,-57,-27,-161,-27,-310r0,-888xm610,-1895r218,308r-138,0r-295,-308r215,0","w":1341},"\u0131":{"d":"135,-1088r141,0r0,1088r-141,0r0,-1088","w":410},"\u02c6":{"d":"448,-1542r139,0r290,257r-180,0r-176,-152r-184,152r-186,0","w":1028},"\u02dc":{"d":"308,-1518v74,0,220,79,287,79v37,0,87,-18,151,-53r70,97v-105,85,-233,118,-374,51v-70,-33,-69,-44,-135,-44v-77,0,-93,25,-158,69r-66,-102v61,-65,136,-97,225,-97","w":899},"\u02c9":{"d":"152,-1479r690,0r0,119r-690,0r0,-119","w":993},"\u02d8":{"d":"819,-1525v-34,130,-172,211,-351,211v-181,0,-320,-80,-358,-211r132,0v44,67,118,104,227,104v119,0,165,-32,222,-104r128,0","w":928},"\u02d9":{"d":"112,-1402v0,-62,54,-116,116,-116v62,0,116,54,116,116v0,62,-54,116,-116,116v-62,0,-116,-54,-116,-116","w":455},"\u02da":{"d":"127,-1477v0,-115,98,-214,213,-214v115,0,213,99,213,214v0,115,-98,213,-213,213v-114,0,-213,-99,-213,-213xm448,-1480v0,-58,-51,-110,-109,-110v-59,0,-110,51,-110,110v0,59,51,110,110,110v58,0,109,-52,109,-110","w":680},"\u00b8":{"d":"416,236v-10,-51,-71,-48,-132,-34r27,-202r88,0r-17,118v85,-17,153,30,153,104v0,103,-106,158,-229,158v-59,0,-115,-10,-167,-30r22,-69v86,27,242,41,255,-45","w":664},"\u02dd":{"d":"475,-1598r215,0r-295,308r-138,0xm791,-1598r215,0r-295,308r-138,0","w":1130},"\u02db":{"d":"503,383v-155,39,-314,-29,-313,-170v0,-87,40,-158,119,-213r109,0v-81,69,-121,133,-121,193v0,94,107,126,215,105","w":618},"\u02c7":{"d":"580,-1285r-139,0r-290,-257r180,0r177,152r183,-152r186,0","w":1028},"\u0141":{"d":"438,-857r266,-221r0,174r-266,222r0,540r566,0r0,142r-713,0r0,-559r-202,168r0,-175r202,-168r0,-737r147,0r0,614","w":1059},"\u0142":{"d":"377,-971r200,-129r0,140r-200,129r0,831r-140,0r0,-741r-184,119r0,-140r184,-119r0,-627r140,0r0,537","w":614},"\u0160":{"d":"888,-359v0,213,-198,405,-417,396v-233,-10,-341,-127,-444,-311r125,-75v88,162,190,243,305,243v152,0,272,-99,272,-250v0,-49,-17,-98,-50,-145v-46,-65,-130,-144,-252,-236v-123,-93,-199,-160,-229,-201v-52,-70,-78,-144,-78,-225v0,-208,150,-345,357,-345v197,0,275,95,386,241r-120,91v-92,-113,-124,-171,-269,-180v-146,-9,-254,143,-182,280v62,119,97,120,263,245v126,96,215,178,262,251v47,73,71,147,71,221xm576,-1583r-139,0r-290,-257r180,0r177,152r183,-152r186,0","w":1020},"\u0161":{"d":"103,-828v0,-164,132,-288,298,-288v100,0,201,49,302,147r-90,93v-75,-73,-148,-109,-219,-109v-128,0,-220,149,-125,251v29,31,83,71,168,115v104,54,175,106,212,156v37,50,55,108,55,171v0,177,-148,324,-329,320v-139,-3,-256,-68,-321,-154r88,-100v71,81,147,121,227,121v148,0,267,-167,163,-288v-26,-31,-85,-69,-176,-116v-98,-51,-165,-101,-200,-150v-35,-49,-53,-106,-53,-169xm463,-1285r-139,0r-290,-257r180,0r177,152r183,-152r186,0","w":795},"\u017d":{"d":"122,-1329r0,-142r776,0r-615,1328r584,0r0,143r-811,0r619,-1329r-553,0xm558,-1583r-139,0r-290,-257r180,0r177,152r183,-152r186,0","w":983},"\u017e":{"d":"67,-1088r799,0r-616,964r596,0r0,124r-837,0r616,-965r-558,0r0,-123xm501,-1285r-139,0r-290,-257r180,0r177,152r183,-152r186,0","w":870},"\u00a6":{"d":"616,-686r0,-822r143,0r0,767xm616,398r0,-957r143,-54r0,1011r-143,0","w":1376},"\u00d0":{"d":"213,-667r-179,0r0,-137r179,0r0,-667v272,0,684,-6,845,53v268,98,454,348,454,701v0,297,-150,532,-344,637v-207,112,-629,72,-955,80r0,-667xm354,-667r0,528v209,1,551,-3,653,-38v211,-73,357,-262,357,-538v0,-293,-160,-498,-391,-571v-106,-33,-405,-45,-619,-42r0,524r387,0r0,137r-387,0","w":1618},"\u00f0":{"d":"105,-547v0,-303,253,-569,548,-569v77,0,161,22,251,65v-63,-85,-134,-163,-213,-235r-218,90r-52,-106r175,-73v-64,-53,-119,-98,-166,-133r197,0v35,25,69,51,102,78r164,-68r52,107r-117,47v145,139,249,275,314,406v115,231,134,457,22,675v-86,167,-263,287,-498,291v-305,6,-561,-266,-561,-575xm1095,-548v0,-257,-162,-430,-415,-434v-237,-3,-434,187,-434,432v0,241,191,451,425,444v252,-7,424,-183,424,-442","w":1341},"\u00dd":{"d":"63,-1471r170,0r376,606r370,-606r170,0r-466,768r0,703r-145,0r0,-703xm674,-1895r215,0r-295,308r-138,0","w":1212},"\u00fd":{"d":"39,-1088r148,0r374,838r363,-838r149,0r-649,1486r-148,0r210,-480xm617,-1598r215,0r-295,308r-138,0","w":1098},"\u00de":{"d":"178,-1471r147,0r0,344v154,-1,420,4,485,22v159,43,287,172,287,370v0,205,-123,326,-293,371v-67,17,-311,26,-479,24r0,340r-147,0r0,-1471xm325,-984r0,500v149,0,371,10,470,-25v125,-44,200,-233,110,-362v-67,-96,-140,-113,-320,-113r-260,0","w":1212},"\u00fe":{"d":"733,28v-202,-4,-334,-91,-436,-215r0,585r-139,0r0,-1906r139,0r0,620v98,-134,226,-223,432,-228v302,-7,562,266,562,569v0,308,-255,582,-558,575xm1150,-542v0,-250,-178,-433,-432,-439v-240,-5,-435,200,-431,443v5,261,181,438,433,438v250,0,430,-193,430,-442","w":1397},"\u2212":{"d":"115,-804r1012,0r0,137r-1012,0r0,-137","w":1241},"\u00d7":{"d":"712,-735r332,331r-92,92r-331,-331r-332,331r-92,-92r331,-331r-331,-332r92,-92r332,332r331,-332r92,92","w":1241},"\u00b9":{"d":"224,-1489r187,0r0,756r-110,0r0,-658r-150,0","w":680},"\u00b2":{"d":"347,-1410v-115,0,-184,67,-192,176r-106,0v1,-161,133,-274,302,-274v193,0,352,174,247,348v-57,94,-237,238,-333,328r377,0r0,99r-636,0r358,-325v71,-64,114,-110,132,-136v75,-107,-27,-216,-149,-216","w":680},"\u00b3":{"d":"342,-1409v-90,3,-124,43,-158,116r-112,0v32,-130,120,-211,270,-215v136,-3,261,83,263,203v0,58,-30,107,-91,146v75,35,138,100,138,194v0,146,-143,253,-307,250v-173,-4,-273,-91,-301,-241r109,0v25,92,82,139,192,142v104,2,197,-57,197,-145v0,-44,-20,-78,-60,-103v-40,-25,-105,-39,-194,-42r0,-94v107,2,202,-30,202,-108v0,-62,-73,-106,-148,-103","w":705},"\u00bd":{"d":"177,-1489r187,0r0,756r-110,0r0,-658r-150,0xm277,37r923,-1545r112,0r-925,1545r-110,0xm1280,-668v-115,0,-184,67,-192,176r-106,0v1,-161,133,-274,302,-274v193,0,352,174,247,348v-57,94,-237,238,-333,328r377,0r0,99r-636,0r358,-325v71,-64,114,-110,132,-136v75,-107,-27,-216,-149,-216","w":1702},"\u00bc":{"d":"188,-1489r187,0r0,756r-110,0r0,-658r-150,0xm388,37r923,-1545r112,0r-925,1545r-110,0xm1554,-786r0,528r105,0r0,97r-105,0r0,170r-111,0r0,-170r-432,0xm1443,-258r0,-248r-214,248r214,0","w":1702},"\u00be":{"d":"367,-1409v-90,3,-124,43,-158,116r-112,0v32,-130,120,-211,270,-215v136,-3,261,83,263,203v0,58,-30,107,-91,146v75,35,138,100,138,194v0,146,-143,253,-307,250v-173,-4,-273,-91,-301,-241r109,0v25,92,82,139,192,142v104,2,197,-57,197,-145v0,-44,-20,-78,-60,-103v-40,-25,-105,-39,-194,-42r0,-94v107,2,202,-30,202,-108v0,-62,-73,-106,-148,-103xm431,37r923,-1545r112,0r-925,1545r-110,0xm1547,-786r0,528r105,0r0,97r-105,0r0,170r-111,0r0,-170r-432,0xm1436,-258r0,-248r-214,248r214,0","w":1702},"\u20a3":{"d":"325,-415r281,0r0,138r-281,0r0,277r-146,0r0,-277r-179,0r0,-138r179,0r0,-1056r737,0r0,145r-591,0r0,460r591,0r0,145r-591,0r0,306","w":993},"\u011e":{"d":"1685,-705v3,446,-293,742,-739,742v-272,0,-485,-95,-646,-278v-207,-237,-243,-598,-78,-884v128,-221,372,-383,702,-383v304,0,494,114,674,284r-114,108v-135,-135,-324,-246,-555,-246v-368,0,-658,256,-658,623v0,376,291,629,679,636v300,5,537,-195,570,-460r-469,0r0,-142r634,0xm1247,-1818v-34,130,-172,211,-351,211v-181,0,-320,-80,-358,-211r132,0v44,67,118,104,227,104v119,0,165,-32,222,-104r128,0","w":1786},"\u011f":{"d":"662,-1116v204,0,321,87,431,217r0,-189r141,0r0,867v0,153,-14,264,-40,335v-70,194,-259,316,-518,312v-301,-5,-467,-115,-562,-340r152,0v79,137,197,210,403,212v180,2,321,-77,382,-188v32,-58,45,-191,42,-317v-92,119,-242,207,-435,207v-322,0,-558,-225,-558,-552v0,-224,125,-401,282,-488v89,-50,182,-76,280,-76xm1100,-553v-3,-256,-172,-428,-420,-428v-256,0,-433,181,-439,436v-5,239,186,413,431,413v252,0,431,-171,428,-421xm1044,-1525v-34,130,-172,211,-351,211v-181,0,-320,-80,-358,-211r132,0v44,67,118,104,227,104v119,0,165,-32,222,-104r128,0","w":1378},"\u0130":{"d":"158,-1471r147,0r0,1471r-147,0r0,-1471xm116,-1695v0,-62,54,-116,116,-116v62,0,116,54,116,116v0,62,-54,116,-116,116v-62,0,-116,-54,-116,-116","w":463},"\u015e":{"d":"888,-359v0,213,-198,405,-417,396v-233,-10,-341,-127,-444,-311r125,-75v88,162,190,243,305,243v152,0,272,-99,272,-250v0,-49,-17,-98,-50,-145v-46,-65,-130,-144,-252,-236v-123,-93,-199,-160,-229,-201v-52,-70,-78,-144,-78,-225v0,-208,150,-345,357,-345v197,0,275,95,386,241r-120,91v-92,-113,-124,-171,-269,-180v-146,-9,-254,143,-182,280v62,119,97,120,263,245v126,96,215,178,262,251v47,73,71,147,71,221xm534,236v-10,-51,-71,-48,-132,-34r27,-202r88,0r-17,118v85,-17,153,30,153,104v0,103,-106,158,-229,158v-59,0,-115,-10,-167,-30r22,-69v86,27,242,41,255,-45","w":1020},"\u015f":{"d":"103,-828v0,-164,132,-288,298,-288v100,0,201,49,302,147r-90,93v-75,-73,-148,-109,-219,-109v-128,0,-220,149,-125,251v29,31,83,71,168,115v104,54,175,106,212,156v37,50,55,108,55,171v0,177,-148,324,-329,320v-139,-3,-256,-68,-321,-154r88,-100v71,81,147,121,227,121v148,0,267,-167,163,-288v-26,-31,-85,-69,-176,-116v-98,-51,-165,-101,-200,-150v-35,-49,-53,-106,-53,-169xm445,236v-10,-51,-71,-48,-132,-34r27,-202r88,0r-17,118v85,-17,153,30,153,104v0,103,-106,158,-229,158v-59,0,-115,-10,-167,-30r22,-69v86,27,242,41,255,-45","w":795},"\u0106":{"d":"111,-744v0,-428,358,-772,794,-764v294,5,516,129,644,310r-116,89v-114,-150,-284,-254,-526,-254v-253,0,-462,139,-559,311v-54,96,-82,202,-82,321v0,356,289,629,650,629v206,0,378,-81,517,-242r116,88v-135,173,-350,287,-642,293v-457,9,-796,-329,-796,-781xm985,-1891r215,0r-295,308r-138,0","w":1665},"\u0107":{"d":"703,28v-327,6,-602,-248,-598,-563v3,-233,134,-416,298,-505v147,-79,344,-100,519,-43v134,44,223,110,290,221r-111,69v-96,-127,-227,-191,-393,-191v-253,0,-469,194,-462,439v7,263,191,445,463,445v160,0,291,-64,392,-191r111,73v-97,147,-274,242,-509,246xm767,-1598r215,0r-295,308r-138,0","w":1325},"\u010c":{"d":"111,-744v0,-428,358,-772,794,-764v294,5,516,129,644,310r-116,89v-114,-150,-284,-254,-526,-254v-253,0,-462,139,-559,311v-54,96,-82,202,-82,321v0,356,289,629,650,629v206,0,378,-81,517,-242r116,88v-135,173,-350,287,-642,293v-457,9,-796,-329,-796,-781xm971,-1578r-139,0r-290,-257r180,0r177,152r183,-152r186,0","w":1665},"\u010d":{"d":"703,28v-327,6,-602,-248,-598,-563v3,-233,134,-416,298,-505v147,-79,344,-100,519,-43v134,44,223,110,290,221r-111,69v-96,-127,-227,-191,-393,-191v-253,0,-469,194,-462,439v7,263,191,445,463,445v160,0,291,-64,392,-191r111,73v-97,147,-274,242,-509,246xm777,-1285r-139,0r-290,-257r180,0r177,152r183,-152r186,0","w":1325},"\u0111":{"d":"671,-1116v206,5,337,94,433,228r0,-328r-306,0r0,-115r306,0r0,-177r138,0r0,177r160,0r0,115r-160,0r0,1216r-138,0r0,-187v-103,125,-234,210,-437,215v-303,7,-558,-267,-558,-575v0,-303,260,-576,562,-569xm1113,-538v4,-243,-191,-448,-431,-443v-254,6,-432,188,-432,439v0,249,180,442,431,442v252,0,427,-177,432,-438","w":1403},"\u00af":{"d":"-12,-1727r1048,0r0,103r-1048,0r0,-103","w":1024},"\u00b7":{"d":"486,-754v0,-62,54,-116,116,-116v62,0,116,54,116,116v0,62,-54,116,-116,116v-62,0,-116,-54,-116,-116","w":682},"\uf003":{"d":"562,-1528r0,528r105,0r0,97r-105,0r0,170r-111,0r0,-170r-432,0xm451,-1000r0,-248r-214,248r214,0","w":705},"\u0102":{"d":"780,-1471r686,1471r-158,0r-231,-484r-634,0r-230,484r-164,0r695,-1471r36,0xm762,-1159r-253,533r503,0xm1119,-1822v-34,130,-172,211,-351,211v-181,0,-320,-80,-358,-211r132,0v44,67,118,104,227,104v119,0,165,-32,222,-104r128,0","w":1515},"\u0103":{"d":"669,-1116v206,5,337,94,433,228r0,-200r138,0r0,1088r-138,0r0,-187v-103,125,-234,210,-437,215v-303,7,-558,-267,-558,-575v0,-303,260,-576,562,-569xm1111,-538v4,-243,-191,-448,-431,-443v-254,6,-432,188,-432,439v0,249,180,442,431,442v252,0,427,-177,432,-438xm1019,-1525v-34,130,-172,211,-351,211v-181,0,-320,-80,-358,-211r132,0v44,67,118,104,227,104v119,0,165,-32,222,-104r128,0","w":1399},"\u0104":{"d":"780,-1471r686,1471r-158,0r-231,-484r-634,0r-230,484r-164,0r695,-1471r36,0xm762,-1159r-253,533r503,0xm1510,383v-155,39,-314,-29,-313,-170v0,-87,40,-158,119,-213r109,0v-81,69,-121,133,-121,193v0,94,107,126,215,105","w":1515},"\u0105":{"d":"669,-1116v206,5,337,94,433,228r0,-200r138,0r0,1088r-138,0r0,-187v-103,125,-234,210,-437,215v-303,7,-558,-267,-558,-575v0,-303,260,-576,562,-569xm1111,-538v4,-243,-191,-448,-431,-443v-254,6,-432,188,-432,439v0,249,180,442,431,442v252,0,427,-177,432,-438xm1309,383v-155,39,-314,-29,-313,-170v0,-87,40,-158,119,-213r109,0v-81,69,-121,133,-121,193v0,94,107,126,215,105","w":1399},"\u010e":{"d":"179,0r0,-1471v257,-1,640,0,784,53v269,99,455,348,455,701v0,297,-150,531,-344,637v-193,105,-586,74,-895,80xm320,-139v199,2,504,-7,593,-38v211,-73,356,-262,356,-538v0,-293,-158,-499,-390,-571v-97,-30,-349,-45,-559,-42r0,1189xm731,-1578r-139,0r-290,-257r180,0r177,152r183,-152r186,0","w":1524},"\u010f":{"d":"109,-547v0,-299,259,-569,562,-569v179,0,323,76,433,228r0,-620r138,0r0,1508r-138,0r0,-187v-118,143,-264,215,-437,215v-312,0,-558,-275,-558,-575xm1113,-538v0,-251,-195,-443,-431,-443v-239,0,-432,208,-432,439v0,231,198,442,431,442v230,0,432,-185,432,-438xm1398,-1041r-65,-38v35,-69,55,-134,59,-195r-75,0r0,-234r154,0v-1,103,4,241,-14,315v-9,42,-29,93,-59,152","w":1403},"\u0110":{"d":"213,-667r-179,0r0,-137r179,0r0,-667v272,0,684,-6,845,53v268,98,454,348,454,701v0,297,-150,532,-344,637v-207,112,-629,72,-955,80r0,-667xm354,-667r0,528v209,1,551,-3,653,-38v211,-73,357,-262,357,-538v0,-293,-160,-498,-391,-571v-106,-33,-405,-45,-619,-42r0,524r387,0r0,137r-387,0","w":1618},"\u0118":{"d":"180,-1471r843,0r0,145r-696,0r0,460r690,0r0,144r-690,0r0,577r690,0r0,145r-837,0r0,-1471xm1010,383v-155,39,-314,-29,-313,-170v0,-87,40,-158,119,-213r109,0v-81,69,-121,133,-121,193v0,94,107,126,215,105","w":1098},"\u0119":{"d":"248,-533v-5,295,272,518,572,404v129,-49,175,-106,252,-232r118,62v-101,193,-244,327,-520,327v-177,0,-316,-58,-416,-174v-100,-116,-150,-248,-150,-395v0,-312,248,-575,558,-575v317,0,567,244,564,583r-978,0xm1072,-654v-37,-147,-101,-230,-223,-287v-158,-74,-343,-46,-460,62v-55,51,-98,125,-127,225r810,0xm883,383v-155,39,-314,-29,-313,-170v0,-87,40,-158,119,-213r109,0v-81,69,-121,133,-121,193v0,94,107,126,215,105","w":1331},"\u011a":{"d":"180,-1471r843,0r0,145r-696,0r0,460r690,0r0,144r-690,0r0,577r690,0r0,145r-837,0r0,-1471xm675,-1583r-139,0r-290,-257r180,0r177,152r183,-152r186,0","w":1098},"\u011b":{"d":"248,-533v-5,295,272,518,572,404v129,-49,175,-106,252,-232r118,62v-101,193,-244,327,-520,327v-177,0,-316,-58,-416,-174v-100,-116,-150,-248,-150,-395v0,-312,248,-575,558,-575v317,0,567,244,564,583r-978,0xm1072,-654v-37,-147,-101,-230,-223,-287v-158,-74,-343,-46,-460,62v-55,51,-98,125,-127,225r810,0xm732,-1285r-139,0r-290,-257r180,0r177,152r183,-152r186,0","w":1331},"\u0132":{"d":"158,-1471r147,0r0,1471r-147,0r0,-1471xm1124,-1471r147,0r0,993v-5,245,-6,353,-139,452v-58,43,-131,63,-216,63v-122,0,-244,-52,-367,-156r79,-117v126,91,222,136,288,136v99,0,178,-80,194,-164v8,-45,14,-118,14,-219r0,-988","w":1450},"\u0133":{"d":"90,-1421v0,-63,54,-115,115,-115v62,0,116,54,116,115v0,62,-54,116,-116,116v-61,0,-115,-54,-115,-116xm503,-1421v0,-63,53,-115,115,-115v62,0,115,52,115,115v0,62,-54,116,-115,116v-61,0,-115,-54,-115,-116xm135,-1088r141,0r0,1088r-141,0r0,-1088xm549,-1088r142,0r0,1252v0,175,-62,262,-185,262v-49,0,-103,-11,-160,-34r0,-126v73,48,179,35,196,-40v5,-18,7,-53,7,-103r0,-1211","w":825},"\u0139":{"d":"179,-1471r148,0r0,1329r565,0r0,142r-713,0r0,-1471xm547,-1896r215,0r-295,308r-138,0","w":946},"\u013a":{"d":"135,-1508r140,0r0,1508r-140,0r0,-1508xm297,-1895r215,0r-295,308r-138,0","w":410},"\u013d":{"d":"179,-1471r148,0r0,1329r565,0r0,142r-713,0r0,-1471xm558,-922r-77,-44v45,-95,59,-118,70,-230r-88,0r0,-275r181,0v-1,122,5,288,-17,374v-12,49,-35,108,-69,175","w":946},"\u013e":{"d":"134,-1508r140,0r0,1508r-140,0r0,-1508xm430,-1041r-66,-38v35,-69,55,-134,60,-195r-75,0r0,-234r153,0v-1,102,4,241,-14,315v-9,42,-28,93,-58,152","w":422},"\u013f":{"d":"179,-1471r148,0r0,1329r565,0r0,142r-713,0r0,-1471xm496,-754v0,-62,54,-116,116,-116v62,0,116,54,116,116v0,62,-54,116,-116,116v-62,0,-116,-54,-116,-116","w":946},"\u0140":{"d":"135,-1508r140,0r0,1508r-140,0r0,-1508xm356,-754v0,-62,54,-116,116,-116v62,0,116,54,116,116v0,62,-54,116,-116,116v-62,0,-116,-54,-116,-116","w":540},"\u0143":{"d":"180,0r0,-1471r32,0r978,1126r0,-1126r145,0r0,1471r-33,0r-970,-1112r0,1112r-152,0xm860,-1895r215,0r-295,308r-138,0","w":1515},"\u0144":{"d":"296,-893v96,-128,214,-223,408,-223v173,0,303,101,356,229v29,70,45,179,45,327r0,560r-139,0r0,-519v0,-125,-6,-209,-16,-251v-32,-135,-116,-216,-274,-217v-178,-1,-326,142,-360,292v-32,142,-17,493,-20,695r-140,0r0,-1088r140,0r0,195xm667,-1598r215,0r-295,308r-138,0","w":1249},"\u0147":{"d":"180,0r0,-1471r32,0r978,1126r0,-1126r145,0r0,1471r-33,0r-970,-1112r0,1112r-152,0xm830,-1582r-139,0r-290,-257r180,0r177,152r183,-152r186,0","w":1515},"\u0148":{"d":"296,-893v96,-128,214,-223,408,-223v173,0,303,101,356,229v29,70,45,179,45,327r0,560r-139,0r0,-519v0,-125,-6,-209,-16,-251v-32,-135,-116,-216,-274,-217v-178,-1,-326,142,-360,292v-32,142,-17,493,-20,695r-140,0r0,-1088r140,0r0,195xm755,-1285r-139,0r-290,-257r180,0r177,152r183,-152r186,0","w":1249},"\u0149":{"d":"301,-893v96,-128,214,-223,408,-223v173,0,303,101,356,229v29,70,45,179,45,327r0,560r-139,0r0,-519v0,-125,-6,-209,-16,-251v-32,-135,-116,-216,-274,-217v-178,-1,-326,142,-360,292v-32,142,-17,493,-20,695r-140,0r0,-1088r140,0r0,195xm26,-959r-77,-44v45,-95,59,-118,70,-230r-88,0r0,-275r181,0v-1,122,5,288,-17,374v-12,49,-35,108,-69,175","w":1254},"\u0150":{"d":"892,37v-421,0,-784,-350,-777,-766v5,-309,170,-557,382,-677v119,-67,246,-102,383,-102v432,0,784,344,784,772v0,420,-352,773,-772,773xm268,-729v0,338,285,629,619,623v249,-4,446,-139,543,-310v105,-187,106,-450,0,-636v-96,-167,-300,-312,-543,-312v-241,0,-444,145,-537,314v-53,97,-82,203,-82,321xm850,-1896r215,0r-295,308r-138,0xm1166,-1896r215,0r-295,308r-138,0","w":1780},"\u0151":{"d":"104,-541v0,-311,257,-575,567,-575v311,0,566,264,566,575v0,303,-249,569,-566,569v-318,0,-567,-265,-567,-569xm1095,-538v8,-233,-196,-441,-424,-441v-229,0,-432,208,-424,441v8,250,171,433,424,433v252,0,416,-183,424,-433xm648,-1598r215,0r-295,308r-138,0xm964,-1598r215,0r-295,308r-138,0","w":1341},"\u0154":{"d":"187,-1471r293,0v163,0,274,7,332,20v165,36,301,174,295,371v-9,283,-194,400,-508,396r529,684r-182,0r-528,-684r-84,0r0,684r-147,0r0,-1471xm334,-1327r0,500v150,-1,369,9,470,-26v125,-44,200,-233,110,-361v-67,-96,-140,-113,-321,-113r-259,0xm725,-1895r215,0r-295,308r-138,0","w":1243},"\u0155":{"d":"246,-929v83,-130,233,-246,407,-150r-73,118v-85,-38,-142,-17,-209,39v-44,37,-76,97,-99,178v-36,123,-24,531,-26,744r-143,0r0,-1088r143,0r0,159xm422,-1598r215,0r-295,308r-138,0","w":616},"\u0158":{"d":"187,-1471r293,0v163,0,274,7,332,20v165,36,301,174,295,371v-9,283,-194,400,-508,396r529,684r-182,0r-528,-684r-84,0r0,684r-147,0r0,-1471xm334,-1327r0,500v150,-1,369,9,470,-26v125,-44,200,-233,110,-361v-67,-96,-140,-113,-321,-113r-259,0xm653,-1582r-139,0r-290,-257r180,0r177,152r183,-152r186,0","w":1243},"\u0159":{"d":"246,-929v83,-130,233,-246,407,-150r-73,118v-85,-38,-142,-17,-209,39v-44,37,-76,97,-99,178v-36,123,-24,531,-26,744r-143,0r0,-1088r143,0r0,159xm398,-1285r-139,0r-290,-257r180,0r177,152r183,-152r186,0","w":616},"\u015a":{"d":"888,-359v0,213,-198,405,-417,396v-233,-10,-341,-127,-444,-311r125,-75v88,162,190,243,305,243v152,0,272,-99,272,-250v0,-49,-17,-98,-50,-145v-46,-65,-130,-144,-252,-236v-123,-93,-199,-160,-229,-201v-52,-70,-78,-144,-78,-225v0,-208,150,-345,357,-345v197,0,275,95,386,241r-120,91v-92,-113,-124,-171,-269,-180v-146,-9,-254,143,-182,280v62,119,97,120,263,245v126,96,215,178,262,251v47,73,71,147,71,221xm552,-1895r215,0r-295,308r-138,0","w":1020},"\u015b":{"d":"103,-828v0,-164,132,-288,298,-288v100,0,201,49,302,147r-90,93v-75,-73,-148,-109,-219,-109v-128,0,-220,149,-125,251v29,31,83,71,168,115v104,54,175,106,212,156v37,50,55,108,55,171v0,177,-148,324,-329,320v-139,-3,-256,-68,-321,-154r88,-100v71,81,147,121,227,121v148,0,267,-167,163,-288v-26,-31,-85,-69,-176,-116v-98,-51,-165,-101,-200,-150v-35,-49,-53,-106,-53,-169xm402,-1598r215,0r-295,308r-138,0","w":795},"\u0162":{"d":"33,-1328r0,-143r807,0r0,143r-328,0r0,1328r-150,0r0,-1328r-329,0xm471,427r-65,-27v21,-48,33,-90,35,-125r-83,0r0,-154r157,0v3,122,-9,242,-44,306","w":872},"\u0163":{"d":"278,-1492r141,0r0,404r222,0r0,120r-222,0r0,968r-141,0r0,-968r-191,0r0,-120r191,0r0,-404xm382,427r-65,-27v21,-48,33,-90,34,-125r-82,0r0,-154r156,0v3,121,-9,242,-43,306","w":694},"\u0164":{"d":"33,-1328r0,-143r807,0r0,143r-328,0r0,1328r-150,0r0,-1328r-329,0xm520,-1578r-139,0r-290,-257r180,0r177,152r183,-152r186,0","w":872},"\u0165":{"d":"592,-1163r-59,-26v35,-55,54,-107,56,-155r-68,0r0,-164r138,0v0,74,3,182,-11,232v-7,30,-26,68,-56,113xm278,-1492r141,0r0,404r222,0r0,120r-222,0r0,968r-141,0r0,-968r-191,0r0,-120r191,0r0,-404","w":694},"\u016e":{"d":"184,-1471r147,0r0,888v1,200,-5,240,57,343v65,106,277,181,430,106v88,-44,150,-115,178,-219v10,-37,15,-114,15,-230r0,-888r147,0r0,888v-3,271,-39,406,-192,530v-151,122,-428,113,-585,5v-84,-58,-141,-132,-170,-225v-18,-57,-27,-161,-27,-310r0,-888xm420,-1775v0,-115,98,-214,213,-214v115,0,213,99,213,214v0,115,-98,213,-213,213v-114,0,-213,-99,-213,-213xm741,-1778v0,-58,-51,-110,-109,-110v-59,0,-110,51,-110,110v0,59,51,110,110,110v58,0,109,-52,109,-110","w":1341},"\u016f":{"d":"138,-1088r141,0v5,233,-22,584,20,764v30,129,156,216,316,216v157,0,279,-85,311,-205v44,-165,15,-549,21,-775r143,0r0,534v0,279,-53,415,-210,518v-132,86,-398,86,-530,0v-159,-104,-212,-243,-212,-528r0,-524xm371,-1477v0,-115,98,-214,213,-214v115,0,213,99,213,214v0,115,-98,213,-213,213v-114,0,-213,-99,-213,-213xm692,-1480v0,-58,-51,-110,-109,-110v-59,0,-110,51,-110,110v0,59,51,110,110,110v58,0,109,-52,109,-110","w":1245},"\u0170":{"d":"184,-1471r147,0r0,888v1,200,-5,240,57,343v65,106,277,181,430,106v88,-44,150,-115,178,-219v10,-37,15,-114,15,-230r0,-888r147,0r0,888v-3,271,-39,406,-192,530v-151,122,-428,113,-585,5v-84,-58,-141,-132,-170,-225v-18,-57,-27,-161,-27,-310r0,-888xm648,-1896r215,0r-295,308r-138,0xm964,-1896r215,0r-295,308r-138,0","w":1341},"\u0171":{"d":"138,-1088r141,0v5,233,-22,584,20,764v30,129,156,216,316,216v157,0,279,-85,311,-205v44,-165,15,-549,21,-775r143,0r0,534v0,279,-53,415,-210,518v-132,86,-398,86,-530,0v-159,-104,-212,-243,-212,-528r0,-524xm599,-1598r215,0r-295,308r-138,0xm915,-1598r215,0r-295,308r-138,0","w":1245},"\u0179":{"d":"122,-1329r0,-142r776,0r-615,1328r584,0r0,143r-811,0r619,-1329r-553,0xm527,-1895r215,0r-295,308r-138,0","w":983},"\u017a":{"d":"67,-1088r799,0r-616,964r596,0r0,124r-837,0r616,-965r-558,0r0,-123xm532,-1598r215,0r-295,308r-138,0","w":870},"\u017b":{"d":"122,-1329r0,-142r776,0r-615,1328r584,0r0,143r-811,0r619,-1329r-553,0xm337,-1699v0,-62,54,-116,116,-116v62,0,116,54,116,116v0,62,-54,116,-116,116v-62,0,-116,-54,-116,-116","w":983},"\u017c":{"d":"67,-1088r799,0r-616,964r596,0r0,124r-837,0r616,-965r-558,0r0,-123xm287,-1402v0,-62,54,-116,116,-116v62,0,116,54,116,116v0,62,-54,116,-116,116v-62,0,-116,-54,-116,-116","w":870},"\uf100":{"d":"177,-1467r889,0r0,174r-695,0r0,1293r-194,0r0,-1467","w":1111},"\uf101":{"d":"115,-734v-2,-446,217,-772,658,-769v423,3,646,321,642,772v-4,445,-203,771,-639,771v-304,0,-474,-131,-578,-348v-56,-116,-83,-258,-83,-426xm773,-1345v-323,0,-452,243,-452,608v0,272,61,442,204,550v63,47,143,69,236,69v141,0,251,-50,330,-150v79,-100,119,-258,119,-477v0,-189,-39,-335,-116,-441v-77,-106,-184,-159,-321,-159xm492,-829r547,0r0,167r-547,0r0,-167","w":1530},"\uf102":{"d":"115,-724v0,-392,226,-573,646,-585r0,-194r194,0r0,194v429,15,643,210,643,585v0,377,-214,572,-643,587r0,312r-194,0r0,-312v-431,-15,-646,-211,-646,-587xm761,-1155v-291,3,-436,147,-436,432v0,273,145,417,436,434r0,-866xm955,-1155r0,866v290,-5,435,-150,435,-435v0,-282,-145,-426,-435,-431","w":1713},"\uf103":{"d":"104,-507v0,-327,172,-573,482,-573v163,0,283,66,361,197r44,-180r195,0v-98,355,-95,727,13,1063r-202,0v-21,-75,-36,-139,-45,-192v-91,147,-215,220,-372,220v-301,0,-476,-240,-476,-535xm927,-531v-1,-231,-84,-413,-307,-411v-217,2,-306,180,-306,421v0,225,94,411,306,411v221,0,308,-171,307,-421","w":1287},"\uf104":{"d":"632,28v-307,0,-528,-213,-528,-513v0,-204,105,-336,234,-409v92,-52,189,-68,314,-48v-106,-82,-175,-149,-208,-202v-33,-53,-50,-107,-50,-163v-2,-253,365,-288,603,-218r0,132v-82,-13,-144,-20,-187,-20v-109,-2,-211,37,-211,126v0,99,63,124,146,192v160,131,274,236,333,325v59,89,88,186,88,290v0,296,-217,508,-534,508xm956,-475v-3,-203,-104,-366,-315,-366v-214,0,-329,147,-329,364v0,216,118,371,325,369v199,-2,322,-147,319,-367","w":1270},"\uf105":{"d":"315,-469v12,232,184,347,458,347v64,0,121,-5,170,-16r0,150v-455,75,-847,-100,-839,-535v6,-343,234,-557,610,-557v67,0,139,5,216,14r0,147r-206,-11v-244,0,-380,107,-407,320r605,0r0,141r-607,0","w":1047},"\uf106":{"d":"608,-1080v64,0,187,16,288,16r463,0r0,152r-340,0v95,91,142,218,142,383v0,332,-194,557,-526,557v-330,0,-531,-220,-531,-556v0,-324,198,-552,504,-552xm954,-537v-1,-228,-88,-418,-314,-418v-220,0,-330,148,-330,443v-1,226,100,406,320,404v236,-1,324,-179,324,-429","w":1398},"\uf107":{"d":"41,-1063r900,0r0,160r-353,0r0,903r-194,0r0,-903r-353,0r0,-160","w":981},"\uf108":{"d":"104,-537v0,-368,239,-525,594,-540r0,-255r188,0r0,257v348,5,594,178,590,530v-3,254,-74,382,-250,479v-94,51,-208,78,-342,81r0,372r-190,0r0,-373v-164,-1,-303,-44,-418,-130v-115,-86,-172,-226,-172,-421xm696,-941v-261,5,-381,144,-381,407v0,273,127,411,381,412r0,-819xm886,-941r0,819v253,-2,380,-140,380,-414v0,-267,-127,-402,-380,-405","w":1580},"\u2017":{"d":"-12,146r1048,0r0,103r-1048,0r0,-103xm-12,323r1048,0r0,103r-1048,0r0,-103","w":1024},"\u2032":{"d":"232,-1045r-103,0r43,-463r148,0","w":405},"\u2033":{"d":"540,-1045r-104,0r44,-463r148,0xm152,-1045r-104,0r43,-463r148,0","w":633},"\u203c":{"d":"373,-1508r0,1140r-145,0r0,-1140r145,0xm855,-1508r0,1140r-144,0r0,-1140r144,0xm179,-96v0,-68,58,-124,123,-124v65,0,123,56,123,124v0,67,-57,124,-123,124v-65,0,-123,-58,-123,-124xm662,-96v0,-67,56,-124,123,-124v66,0,123,57,123,124v0,67,-57,124,-123,124v-66,0,-123,-58,-123,-124","w":1087},"\u207f":{"d":"76,-1256r115,0r0,97v88,-116,246,-157,363,-66v86,67,99,144,99,300r0,350r-115,0r0,-326v-3,-124,4,-183,-56,-235v-57,-50,-157,-38,-212,16v-77,75,-79,132,-79,292r0,253r-115,0r0,-681","w":729},"\u20a7":{"d":"1793,-105v99,0,201,-78,201,-181v0,-43,-14,-79,-42,-110v-28,-31,-85,-68,-172,-113v-89,-47,-154,-95,-194,-141v-68,-77,-79,-219,-25,-318r-248,0r0,968r-141,0r0,-968r-90,0v-41,149,-140,232,-294,264v-80,17,-303,22,-463,20r0,684r-147,0r0,-1471v197,1,517,-5,644,25v144,34,278,174,275,358r75,0r0,-404r141,0r0,404r380,0v174,-67,298,-10,434,119r-90,93v-72,-73,-145,-109,-219,-109v-80,0,-165,66,-165,150v0,34,13,67,38,99v25,32,82,72,170,117v94,49,162,97,204,145v42,48,63,109,63,182v1,172,-143,320,-330,320v-140,0,-257,-72,-320,-154r88,-100v71,81,147,121,227,121xm325,-1328r0,500v147,2,228,3,245,3v194,-1,279,-24,342,-128v82,-137,-3,-314,-115,-350v-100,-33,-324,-22,-472,-25","w":2219},"\u2105":{"d":"46,-1145v-3,-198,151,-363,350,-363v132,0,230,57,294,172r-94,53v-48,-79,-116,-118,-204,-118v-135,0,-230,122,-230,249v0,133,96,254,230,254v85,0,153,-39,205,-118r93,56v-67,111,-168,166,-301,166v-205,0,-340,-170,-343,-351xm373,37r924,-1545r111,0r-925,1545r-110,0xm1092,-339v0,-185,138,-359,322,-359v185,0,323,175,323,359v0,184,-137,356,-323,356v-183,0,-322,-171,-322,-356xm1620,-337v0,-125,-89,-250,-206,-250v-115,0,-205,126,-205,250v0,127,85,246,205,246v121,0,206,-119,206,-246","w":1783},"\u2113":{"d":"417,24v-140,0,-199,-89,-199,-241r0,-225r-79,98r-98,-78r177,-235r0,-455v0,-148,20,-248,60,-300v40,-52,97,-79,171,-79v137,0,223,107,223,235v0,64,-20,141,-61,230v-41,89,-115,210,-224,361r0,415v3,85,-4,132,56,132v35,0,101,-36,199,-107r0,162v-69,58,-144,87,-225,87xm505,-1122v38,-86,48,-249,-49,-249v-28,0,-47,17,-56,51v-20,78,-11,300,-13,421v61,-105,99,-179,118,-223","w":734},"\u2190":{"d":"492,-876r76,0v-54,113,-119,216,-195,309r1595,0r0,101r-1595,0v68,68,134,171,198,309r-78,0v-149,-169,-287,-282,-414,-341r0,-45v118,-47,256,-158,413,-333","w":2048},"\u2191":{"d":"153,-1050v175,-157,286,-295,333,-413r46,0v58,128,171,266,340,415r0,77v-138,-64,-241,-130,-309,-197r0,1597r-101,0r0,-1597v-93,76,-196,141,-309,195r0,-77","w":1024},"\u2192":{"d":"1555,-876v158,175,296,286,413,333r0,45v-127,59,-265,172,-414,341r-77,0v63,-138,129,-241,197,-309r-1595,0r0,-101r1595,0v-76,-93,-141,-196,-195,-309r76,0","w":2048},"\u2193":{"d":"153,16r0,-76v113,54,216,119,309,195r0,-1598r101,0r0,1598v68,-68,171,-134,309,-197r0,77v-169,149,-282,287,-340,414r-46,0v-47,-117,-158,-255,-333,-413","w":1024},"\u2194":{"d":"1968,-540r0,45v-121,53,-256,165,-406,337r-80,0v46,-115,111,-218,194,-311r-1305,0v83,93,148,196,194,311r-80,0v-149,-172,-285,-284,-406,-337r0,-45v121,-53,257,-165,406,-338r80,0v-46,115,-111,218,-194,311r1305,0v-83,-93,-148,-196,-194,-311r80,0v150,173,285,285,406,338","w":2048},"\u2195":{"d":"489,-1463r45,0v53,121,165,257,337,407r0,80v-114,-46,-218,-111,-311,-195r0,1306v93,-84,197,-149,311,-194r0,79v-172,150,-284,286,-337,407r-45,0v-53,-121,-165,-257,-337,-407r0,-79v114,45,218,110,311,194r0,-1306v-93,84,-197,149,-311,195r0,-80v172,-150,284,-286,337,-407","w":1024},"\u21a8":{"d":"489,-1463r45,0v53,121,165,257,337,407r0,80v-114,-46,-218,-111,-311,-195r0,1306v93,-84,197,-149,311,-194r0,79v-172,150,-284,286,-337,407r-45,0v-53,-121,-165,-257,-337,-407r0,-79v114,45,218,110,311,194r0,-1306v-93,84,-197,149,-311,195r0,-80v172,-150,284,-286,337,-407xm154,522r717,0r0,98r-717,0r0,-98","w":1024},"\u221f":{"d":"362,-1279r100,0r0,1179r1181,0r0,100r-1281,0r0,-1279","w":2005},"\u2229":{"d":"239,0r-110,0r2,-859v-4,-310,110,-512,323,-603v228,-98,460,56,539,212v97,191,85,296,85,629r0,621r-110,0r0,-628v-5,-276,11,-376,-62,-538v-45,-99,-170,-195,-303,-195v-209,0,-337,169,-353,381v-19,247,-8,687,-11,980","w":1206},"\u2261":{"d":"1127,-1205r0,137r-1012,0r0,-137r1012,0xm115,-804r1012,0r0,137r-1012,0r0,-137xm1127,-403r0,137r-1012,0r0,-137r1012,0","w":1241},"\u25a1":{"d":"146,-944r944,0r0,944r-944,0r0,-944xm222,-868r0,792r792,0r0,-792r-792,0","w":1237},"\u25aa":{"d":"594,-909r0,464r-463,0r0,-463","w":726},"\u25ab":{"d":"594,-909r0,464r-463,0r0,-463xm518,-833r-311,1r0,311r311,0r0,-312","w":726},"\u25cf":{"d":"178,-578v0,-242,206,-440,441,-440v235,0,440,204,440,440v0,236,-204,441,-440,441v-236,0,-441,-205,-441,-441","w":1237},"\u25e6":{"d":"112,-677v0,-135,117,-251,251,-251v133,0,251,114,251,251v0,135,-116,251,-251,251v-135,0,-251,-116,-251,-251xm538,-677v0,-95,-82,-175,-175,-175v-94,0,-175,79,-175,175v0,94,81,175,175,175v94,0,175,-81,175,-175","w":726},"\uf004":{"d":"326,121r122,57r-183,340r-89,-38","w":682},"\u0100":{"d":"780,-1471r686,1471r-158,0r-231,-484r-634,0r-230,484r-164,0r695,-1471r36,0xm762,-1159r-253,533r503,0xm412,-1776r690,0r0,119r-690,0r0,-119","w":1515},"\u0101":{"d":"669,-1116v206,5,337,94,433,228r0,-200r138,0r0,1088r-138,0r0,-187v-103,125,-234,210,-437,215v-303,7,-558,-267,-558,-575v0,-303,260,-576,562,-569xm1111,-538v4,-243,-191,-448,-431,-443v-254,6,-432,188,-432,439v0,249,180,442,431,442v252,0,427,-177,432,-438xm355,-1479r690,0r0,119r-690,0r0,-119","w":1399},"\u0108":{"d":"111,-744v0,-428,358,-772,794,-764v294,5,516,129,644,310r-116,89v-114,-150,-284,-254,-526,-254v-253,0,-462,139,-559,311v-54,96,-82,202,-82,321v0,356,289,629,650,629v206,0,378,-81,517,-242r116,88v-135,173,-350,287,-642,293v-457,9,-796,-329,-796,-781xm806,-1840r139,0r290,257r-180,0r-176,-152r-184,152r-186,0","w":1665},"\u0109":{"d":"703,28v-327,6,-602,-248,-598,-563v3,-233,134,-416,298,-505v147,-79,344,-100,519,-43v134,44,223,110,290,221r-111,69v-96,-127,-227,-191,-393,-191v-253,0,-469,194,-462,439v7,263,191,445,463,445v160,0,291,-64,392,-191r111,73v-97,147,-274,242,-509,246xm598,-1542r139,0r290,257r-180,0r-176,-152r-184,152r-186,0","w":1325},"\u010a":{"d":"111,-744v0,-428,358,-772,794,-764v294,5,516,129,644,310r-116,89v-114,-150,-284,-254,-526,-254v-253,0,-462,139,-559,311v-54,96,-82,202,-82,321v0,356,289,629,650,629v206,0,378,-81,517,-242r116,88v-135,173,-350,287,-642,293v-457,9,-796,-329,-796,-781xm762,-1700v0,-62,54,-116,116,-116v62,0,116,54,116,116v0,62,-54,116,-116,116v-62,0,-116,-54,-116,-116","w":1665},"\u010b":{"d":"703,28v-327,6,-602,-248,-598,-563v3,-233,134,-416,298,-505v147,-79,344,-100,519,-43v134,44,223,110,290,221r-111,69v-96,-127,-227,-191,-393,-191v-253,0,-469,194,-462,439v7,263,191,445,463,445v160,0,291,-64,392,-191r111,73v-97,147,-274,242,-509,246xm567,-1402v0,-62,54,-116,116,-116v62,0,116,54,116,116v0,62,-54,116,-116,116v-62,0,-116,-54,-116,-116","w":1325},"\u0112":{"d":"180,-1471r843,0r0,145r-696,0r0,460r690,0r0,144r-690,0r0,577r690,0r0,145r-837,0r0,-1471xm252,-1776r690,0r0,119r-690,0r0,-119","w":1098},"\u0113":{"d":"248,-533v-5,295,272,518,572,404v129,-49,175,-106,252,-232r118,62v-101,193,-244,327,-520,327v-177,0,-316,-58,-416,-174v-100,-116,-150,-248,-150,-395v0,-312,248,-575,558,-575v317,0,567,244,564,583r-978,0xm1072,-654v-37,-147,-101,-230,-223,-287v-158,-74,-343,-46,-460,62v-55,51,-98,125,-127,225r810,0xm320,-1479r690,0r0,119r-690,0r0,-119","w":1331},"\u0114":{"d":"180,-1471r843,0r0,145r-696,0r0,460r690,0r0,144r-690,0r0,577r690,0r0,145r-837,0r0,-1471xm904,-1823v-34,130,-172,211,-351,211v-181,0,-320,-80,-358,-211r132,0v44,67,118,104,227,104v119,0,165,-32,222,-104r128,0","w":1098},"\u0115":{"d":"248,-533v-5,295,272,518,572,404v129,-49,175,-106,252,-232r118,62v-101,193,-244,327,-520,327v-177,0,-316,-58,-416,-174v-100,-116,-150,-248,-150,-395v0,-312,248,-575,558,-575v317,0,567,244,564,583r-978,0xm1072,-654v-37,-147,-101,-230,-223,-287v-158,-74,-343,-46,-460,62v-55,51,-98,125,-127,225r810,0xm1020,-1525v-34,130,-172,211,-351,211v-181,0,-320,-80,-358,-211r132,0v44,67,118,104,227,104v119,0,165,-32,222,-104r128,0","w":1331},"\u0116":{"d":"180,-1471r843,0r0,145r-696,0r0,460r690,0r0,144r-690,0r0,577r690,0r0,145r-837,0r0,-1471xm486,-1700v0,-62,54,-116,116,-116v62,0,116,54,116,116v0,62,-54,116,-116,116v-62,0,-116,-54,-116,-116","w":1098},"\u0117":{"d":"248,-533v-5,295,272,518,572,404v129,-49,175,-106,252,-232r118,62v-101,193,-244,327,-520,327v-177,0,-316,-58,-416,-174v-100,-116,-150,-248,-150,-395v0,-312,248,-575,558,-575v317,0,567,244,564,583r-978,0xm1072,-654v-37,-147,-101,-230,-223,-287v-158,-74,-343,-46,-460,62v-55,51,-98,125,-127,225r810,0xm549,-1402v0,-62,54,-116,116,-116v62,0,116,54,116,116v0,62,-54,116,-116,116v-62,0,-116,-54,-116,-116","w":1331},"\u011c":{"d":"1685,-705v3,446,-293,742,-739,742v-272,0,-485,-95,-646,-278v-207,-237,-243,-598,-78,-884v128,-221,372,-383,702,-383v304,0,494,114,674,284r-114,108v-135,-135,-324,-246,-555,-246v-368,0,-658,256,-658,623v0,376,291,629,679,636v300,5,537,-195,570,-460r-469,0r0,-142r634,0xm835,-1840r139,0r290,257r-180,0r-176,-152r-184,152r-186,0","w":1786},"\u011d":{"d":"662,-1116v204,0,321,87,431,217r0,-189r141,0r0,867v0,153,-14,264,-40,335v-70,194,-259,316,-518,312v-301,-5,-467,-115,-562,-340r152,0v79,137,197,210,403,212v180,2,321,-77,382,-188v32,-58,45,-191,42,-317v-92,119,-242,207,-435,207v-322,0,-558,-225,-558,-552v0,-224,125,-401,282,-488v89,-50,182,-76,280,-76xm1100,-553v-3,-256,-172,-428,-420,-428v-256,0,-433,181,-439,436v-5,239,186,413,431,413v252,0,431,-171,428,-421xm600,-1542r139,0r290,257r-180,0r-176,-152r-184,152r-186,0","w":1378},"\u0120":{"d":"1685,-705v3,446,-293,742,-739,742v-272,0,-485,-95,-646,-278v-207,-237,-243,-598,-78,-884v128,-221,372,-383,702,-383v304,0,494,114,674,284r-114,108v-135,-135,-324,-246,-555,-246v-368,0,-658,256,-658,623v0,376,291,629,679,636v300,5,537,-195,570,-460r-469,0r0,-142r634,0xm797,-1700v0,-62,54,-116,116,-116v62,0,116,54,116,116v0,62,-54,116,-116,116v-62,0,-116,-54,-116,-116","w":1786},"\u0121":{"d":"662,-1116v204,0,321,87,431,217r0,-189r141,0r0,867v0,153,-14,264,-40,335v-70,194,-259,316,-518,312v-301,-5,-467,-115,-562,-340r152,0v79,137,197,210,403,212v180,2,321,-77,382,-188v32,-58,45,-191,42,-317v-92,119,-242,207,-435,207v-322,0,-558,-225,-558,-552v0,-224,125,-401,282,-488v89,-50,182,-76,280,-76xm1100,-553v-3,-256,-172,-428,-420,-428v-256,0,-433,181,-439,436v-5,239,186,413,431,413v252,0,431,-171,428,-421xm576,-1402v0,-62,54,-116,116,-116v62,0,116,54,116,116v0,62,-54,116,-116,116v-62,0,-116,-54,-116,-116","w":1378},"\u0122":{"d":"1685,-705v3,446,-293,742,-739,742v-272,0,-485,-95,-646,-278v-207,-237,-243,-598,-78,-884v128,-221,372,-383,702,-383v304,0,494,114,674,284r-114,108v-135,-135,-324,-246,-555,-246v-368,0,-658,256,-658,623v0,376,291,629,679,636v300,5,537,-195,570,-460r-469,0r0,-142r634,0xm977,236v-10,-51,-71,-48,-132,-34r27,-202r88,0r-17,118v85,-17,153,30,153,104v0,103,-106,158,-229,158v-59,0,-115,-10,-167,-30r22,-69v86,27,242,41,255,-45","w":1786},"\u0123":{"d":"662,-1116v204,0,321,87,431,217r0,-189r141,0r0,867v0,153,-14,264,-40,335v-70,194,-259,316,-518,312v-301,-5,-467,-115,-562,-340r152,0v79,137,197,210,403,212v180,2,321,-77,382,-188v32,-58,45,-191,42,-317v-92,119,-242,207,-435,207v-322,0,-558,-225,-558,-552v0,-224,125,-401,282,-488v89,-50,182,-76,280,-76xm1100,-553v-3,-256,-172,-428,-420,-428v-256,0,-433,181,-439,436v-5,239,186,413,431,413v252,0,431,-171,428,-421xm679,-1818r78,44v-46,95,-58,118,-71,230r89,0r0,275r-181,0v1,-122,-4,-289,18,-375v12,-49,34,-107,67,-174","w":1378},"\u0124":{"d":"177,-1471r148,0r0,617r748,0r0,-617r148,0r0,1471r-148,0r0,-710r-748,0r0,710r-148,0r0,-1471xm633,-1840r139,0r290,257r-180,0r-176,-152r-184,152r-186,0","w":1399},"\u0125":{"d":"296,-893v97,-127,215,-220,408,-223v173,-3,302,100,356,228v29,70,45,179,45,328r0,560r-140,0r0,-519v0,-125,-5,-209,-15,-251v-32,-135,-116,-216,-274,-217v-178,-1,-326,142,-360,292v-31,141,-17,493,-20,695r-140,0r0,-1508r140,0r0,615xm558,-1840r139,0r290,257r-180,0r-176,-152r-184,152r-186,0","w":1249},"\u0126":{"d":"326,-1239r747,0r0,-232r148,0r0,232r133,0r0,138r-133,0r0,1101r-148,0r0,-710r-747,0r0,710r-148,0r0,-1101r-133,0r0,-138r133,0r0,-232r148,0r0,232xm326,-1101r0,247r747,0r0,-247r-747,0","w":1399},"\u0127":{"d":"296,-1356r374,0r0,116r-374,0r0,347v113,-149,248,-223,407,-223v185,0,334,123,371,262v57,213,23,581,31,854r-140,0v-5,-246,19,-597,-21,-793v-23,-114,-123,-197,-268,-194v-205,3,-329,147,-364,315v-31,148,-13,474,-16,672r-140,0r0,-1240r-152,0r0,-116r152,0r0,-152r140,0r0,152","w":1249},"\u0128":{"d":"158,-1471r147,0r0,1471r-147,0r0,-1471xm90,-1816v74,0,220,79,287,79v37,0,87,-18,151,-53r70,97v-105,85,-233,118,-374,51v-70,-33,-69,-44,-135,-44v-77,0,-93,25,-158,69r-66,-102v61,-65,136,-97,225,-97","w":463},"\u0129":{"d":"135,-1088r141,0r0,1088r-141,0r0,-1088xm63,-1518v74,0,220,79,287,79v37,0,87,-18,151,-53r70,97v-105,85,-233,118,-374,51v-70,-33,-69,-44,-135,-44v-77,0,-93,25,-158,69r-66,-102v61,-65,136,-97,225,-97","w":410},"\u012a":{"d":"158,-1471r147,0r0,1471r-147,0r0,-1471xm-113,-1776r690,0r0,119r-690,0r0,-119","w":463},"\u012b":{"d":"135,-1088r141,0r0,1088r-141,0r0,-1088xm-140,-1479r690,0r0,119r-690,0r0,-119","w":410},"\u012c":{"d":"158,-1471r147,0r0,1471r-147,0r0,-1471xm586,-1823v-34,130,-172,211,-351,211v-181,0,-320,-80,-358,-211r132,0v44,67,118,104,227,104v119,0,165,-32,222,-104r128,0","w":463},"\u012d":{"d":"135,-1088r141,0r0,1088r-141,0r0,-1088xm560,-1525v-34,130,-172,211,-351,211v-181,0,-320,-80,-358,-211r132,0v44,67,118,104,227,104v119,0,165,-32,222,-104r128,0","w":410},"\u012e":{"d":"158,-1471r147,0r0,1471r-147,0r0,-1471xm390,383v-155,39,-314,-29,-313,-170v0,-87,40,-158,119,-213r109,0v-81,69,-121,133,-121,193v0,94,107,126,215,105","w":463},"\u012f":{"d":"90,-1420v0,-62,54,-116,115,-116v62,0,116,54,116,116v0,61,-54,115,-116,115v-61,0,-115,-54,-115,-115xm135,-1088r141,0r0,1088r-141,0r0,-1088xm361,383v-155,39,-314,-29,-313,-170v0,-87,40,-158,119,-213r109,0v-81,69,-121,133,-121,193v0,94,107,126,215,105","w":410},"\u0134":{"d":"164,-236v115,73,160,136,289,136v91,0,164,-64,187,-139v13,-42,20,-123,20,-244r0,-988r148,0r0,993v-3,269,-16,365,-154,462v-97,68,-254,69,-376,18v-58,-23,-122,-63,-192,-121xm559,-1840r139,0r290,257r-180,0r-176,-152r-184,152r-186,0","w":987},"\u0135":{"d":"142,-1542r139,0r290,257r-180,0r-176,-152r-184,152r-186,0xm139,-1088r142,0r0,1252v0,175,-62,262,-185,262v-49,0,-103,-11,-160,-34r0,-126v73,48,179,35,196,-40v5,-18,7,-53,7,-103r0,-1211","w":416},"\u0136":{"d":"179,-1471r150,0r0,552r587,-552r199,0r-707,660r762,811r-195,0r-646,-686r0,686r-150,0r0,-1471xm746,222v0,154,-216,188,-375,136r22,-71v93,25,234,21,234,-51v0,-51,-91,-50,-145,-30r12,-79v31,-10,62,-15,95,-15v105,0,157,37,157,110","w":1210},"\u0137":{"d":"155,-1508r141,0r0,858r503,-438r206,0r-597,519r632,569r-198,0r-546,-489r0,489r-141,0r0,-1508xm671,222v0,154,-216,188,-375,136r22,-71v93,25,234,21,234,-51v0,-51,-91,-50,-145,-30r12,-79v31,-10,62,-15,95,-15v105,0,157,37,157,110","w":1028},"\u0138":{"d":"155,-1088r141,0r0,438r503,-438r206,0r-597,519r632,569r-198,0r-546,-489r0,489r-141,0r0,-1088","w":1028},"\u013b":{"d":"179,-1471r148,0r0,1329r565,0r0,142r-713,0r0,-1471xm660,222v0,154,-216,188,-375,136r22,-71v93,25,234,21,234,-51v0,-51,-91,-50,-145,-30r12,-79v31,-10,62,-15,95,-15v105,0,157,37,157,110","w":946},"\u013c":{"d":"135,-1508r140,0r0,1508r-140,0r0,-1508xm358,222v0,154,-216,188,-375,136r22,-71v93,25,234,21,234,-51v0,-51,-91,-50,-145,-30r12,-79v31,-10,62,-15,95,-15v105,0,157,37,157,110","w":410},"\u0145":{"d":"180,0r0,-1471r32,0r978,1126r0,-1126r145,0r0,1471r-33,0r-970,-1112r0,1112r-152,0xm910,222v0,154,-216,188,-375,136r22,-71v93,25,234,21,234,-51v0,-51,-91,-50,-145,-30r12,-79v31,-10,62,-15,95,-15v105,0,157,37,157,110","w":1515},"\u0146":{"d":"296,-893v96,-128,214,-223,408,-223v173,0,303,101,356,229v29,70,45,179,45,327r0,560r-139,0r0,-519v0,-125,-6,-209,-16,-251v-32,-135,-116,-216,-274,-217v-178,-1,-326,142,-360,292v-32,142,-17,493,-20,695r-140,0r0,-1088r140,0r0,195xm778,222v0,154,-216,188,-375,136r22,-71v93,25,234,21,234,-51v0,-51,-91,-50,-145,-30r12,-79v31,-10,62,-15,95,-15v105,0,157,37,157,110","w":1249},"\u014a":{"d":"805,-1508v402,0,671,367,671,781v0,224,-59,405,-167,550v-194,261,-585,297,-780,26r105,-91v69,93,156,140,262,140v123,0,226,-61,306,-184v80,-123,120,-274,120,-453v0,-337,-223,-632,-538,-630v-202,1,-367,123,-458,250r0,1119r-148,0r0,-1471r148,0r0,178v131,-143,291,-215,479,-215","w":1591},"\u014b":{"d":"1105,-560r0,724v0,175,-62,262,-187,262v-48,0,-100,-11,-157,-34r0,-126v73,48,180,35,197,-40v5,-18,8,-53,8,-103r0,-642v-4,-225,0,-319,-110,-413v-83,-71,-252,-70,-352,-11v-91,54,-171,158,-192,271v-27,149,-13,474,-16,672r-140,0r0,-1088r140,0r0,195v112,-149,248,-223,407,-223v185,0,329,123,370,261v21,71,32,169,32,295","w":1249},"\u014c":{"d":"892,37v-421,0,-784,-350,-777,-766v5,-309,170,-557,382,-677v119,-67,246,-102,383,-102v432,0,784,344,784,772v0,420,-352,773,-772,773xm268,-729v0,338,285,629,619,623v249,-4,446,-139,543,-310v105,-187,106,-450,0,-636v-96,-167,-300,-312,-543,-312v-241,0,-444,145,-537,314v-53,97,-82,203,-82,321xm545,-1777r690,0r0,119r-690,0r0,-119","w":1780},"\u014d":{"d":"104,-541v0,-311,257,-575,567,-575v311,0,566,264,566,575v0,303,-249,569,-566,569v-318,0,-567,-265,-567,-569xm1095,-538v8,-233,-196,-441,-424,-441v-229,0,-432,208,-424,441v8,250,171,433,424,433v252,0,416,-183,424,-433xm326,-1479r690,0r0,119r-690,0r0,-119","w":1341},"\u014e":{"d":"892,37v-421,0,-784,-350,-777,-766v5,-309,170,-557,382,-677v119,-67,246,-102,383,-102v432,0,784,344,784,772v0,420,-352,773,-772,773xm268,-729v0,338,285,629,619,623v249,-4,446,-139,543,-310v105,-187,106,-450,0,-636v-96,-167,-300,-312,-543,-312v-241,0,-444,145,-537,314v-53,97,-82,203,-82,321xm1244,-1823v-34,130,-172,211,-351,211v-181,0,-320,-80,-358,-211r132,0v44,67,118,104,227,104v119,0,165,-32,222,-104r128,0","w":1780},"\u014f":{"d":"104,-541v0,-311,257,-575,567,-575v311,0,566,264,566,575v0,303,-249,569,-566,569v-318,0,-567,-265,-567,-569xm1095,-538v8,-233,-196,-441,-424,-441v-229,0,-432,208,-424,441v8,250,171,433,424,433v252,0,416,-183,424,-433xm1025,-1525v-34,130,-172,211,-351,211v-181,0,-320,-80,-358,-211r132,0v44,67,118,104,227,104v119,0,165,-32,222,-104r128,0","w":1341},"\u0156":{"d":"187,-1471r293,0v163,0,274,7,332,20v165,36,301,174,295,371v-9,283,-194,400,-508,396r529,684r-182,0r-528,-684r-84,0r0,684r-147,0r0,-1471xm334,-1327r0,500v150,-1,369,9,470,-26v125,-44,200,-233,110,-361v-67,-96,-140,-113,-321,-113r-259,0xm756,222v0,154,-216,188,-375,136r22,-71v93,25,234,21,234,-51v0,-51,-91,-50,-145,-30r12,-79v31,-10,62,-15,95,-15v105,0,157,37,157,110","w":1243},"\u0157":{"d":"246,-929v83,-130,233,-246,407,-150r-73,118v-85,-38,-142,-17,-209,39v-44,37,-76,97,-99,178v-36,123,-24,531,-26,744r-143,0r0,-1088r143,0r0,159xm448,222v0,154,-216,188,-375,136r22,-71v93,25,234,21,234,-51v0,-51,-91,-50,-145,-30r12,-79v31,-10,62,-15,95,-15v105,0,157,37,157,110","w":616},"\u015c":{"d":"888,-359v0,213,-198,405,-417,396v-233,-10,-341,-127,-444,-311r125,-75v88,162,190,243,305,243v152,0,272,-99,272,-250v0,-49,-17,-98,-50,-145v-46,-65,-130,-144,-252,-236v-123,-93,-199,-160,-229,-201v-52,-70,-78,-144,-78,-225v0,-208,150,-345,357,-345v197,0,275,95,386,241r-120,91v-92,-113,-124,-171,-269,-180v-146,-9,-254,143,-182,280v62,119,97,120,263,245v126,96,215,178,262,251v47,73,71,147,71,221xm444,-1840r139,0r290,257r-180,0r-176,-152r-184,152r-186,0","w":1020},"\u015d":{"d":"103,-828v0,-164,132,-288,298,-288v100,0,201,49,302,147r-90,93v-75,-73,-148,-109,-219,-109v-128,0,-220,149,-125,251v29,31,83,71,168,115v104,54,175,106,212,156v37,50,55,108,55,171v0,177,-148,324,-329,320v-139,-3,-256,-68,-321,-154r88,-100v71,81,147,121,227,121v148,0,267,-167,163,-288v-26,-31,-85,-69,-176,-116v-98,-51,-165,-101,-200,-150v-35,-49,-53,-106,-53,-169xm332,-1542r139,0r290,257r-180,0r-176,-152r-184,152r-186,0","w":795},"\u0166":{"d":"512,-777r280,0r0,138r-280,0r0,639r-150,0r0,-639r-281,0r0,-138r281,0r0,-551r-329,0r0,-143r807,0r0,143r-328,0r0,551","w":872},"\u0167":{"d":"419,-607r246,0r0,116r-246,0r0,491r-140,0r0,-491r-216,0r0,-116r216,0r0,-361r-192,0r0,-120r192,0r0,-404r140,0r0,404r222,0r0,120r-222,0r0,361","w":694},"\u0168":{"d":"184,-1471r147,0r0,888v1,200,-5,240,57,343v65,106,277,181,430,106v88,-44,150,-115,178,-219v10,-37,15,-114,15,-230r0,-888r147,0r0,888v-3,271,-39,406,-192,530v-151,122,-428,113,-585,5v-84,-58,-141,-132,-170,-225v-18,-57,-27,-161,-27,-310r0,-888xm537,-1815v74,0,220,79,287,79v37,0,87,-18,151,-53r70,97v-105,85,-233,118,-374,51v-70,-33,-69,-44,-135,-44v-77,0,-93,25,-158,69r-66,-102v61,-65,136,-97,225,-97","w":1341},"\u0169":{"d":"138,-1088r141,0v5,233,-22,584,20,764v30,129,156,216,316,216v157,0,279,-85,311,-205v44,-165,15,-549,21,-775r143,0r0,534v0,279,-53,415,-210,518v-132,86,-398,86,-530,0v-159,-104,-212,-243,-212,-528r0,-524xm481,-1518v74,0,220,79,287,79v37,0,87,-18,151,-53r70,97v-105,85,-233,118,-374,51v-70,-33,-69,-44,-135,-44v-77,0,-93,25,-158,69r-66,-102v61,-65,136,-97,225,-97","w":1245},"\u016a":{"d":"184,-1471r147,0r0,888v1,200,-5,240,57,343v65,106,277,181,430,106v88,-44,150,-115,178,-219v10,-37,15,-114,15,-230r0,-888r147,0r0,888v-3,271,-39,406,-192,530v-151,122,-428,113,-585,5v-84,-58,-141,-132,-170,-225v-18,-57,-27,-161,-27,-310r0,-888xm325,-1777r690,0r0,119r-690,0r0,-119","w":1341},"\u016b":{"d":"138,-1088r141,0v5,233,-22,584,20,764v30,129,156,216,316,216v157,0,279,-85,311,-205v44,-165,15,-549,21,-775r143,0r0,534v0,279,-53,415,-210,518v-132,86,-398,86,-530,0v-159,-104,-212,-243,-212,-528r0,-524xm277,-1479r690,0r0,119r-690,0r0,-119","w":1245},"\u016c":{"d":"184,-1471r147,0r0,888v1,200,-5,240,57,343v65,106,277,181,430,106v88,-44,150,-115,178,-219v10,-37,15,-114,15,-230r0,-888r147,0r0,888v-3,271,-39,406,-192,530v-151,122,-428,113,-585,